9508,0.574644,0.330604
9512,-0.417188,0.175196
9515,-0.595348,0.356126
9517,-0.731811,0.54028
9519,-0.685578,0.472738
9520,0.287926,0.0837589
9524,-0.314432,0.100627
9525,-0.52625,0.288731
9526,-1.00764,1.02321
9527,-0.125317,0.0166123
9528,0.115765,0.0141821
9529,-1.20565,1.45863
9531,-0.327086,0.1151
9532,0.0519223,0.00795412
9533,-1.04135,1.08992
9534,0.224388,0.0515322
9535,0.360177,0.130693
9536,-0.260008,0.0727288
9537,-1.18058,1.39585
9538,-1.06501,1.13928
9539,0.113165,0.0134009
9540,-0.23516,0.0574319
9541,-0.761985,0.587003
9542,-0.398343,0.159969
9544,0.111767,0.0133145
9545,0.0823305,0.0148123
9546,-0.576274,0.345229
9547,0.499162,0.253659
9548,0.3192,0.103888
9549,0.164213,0.0378077
9550,-0.527339,0.283791
9551,0.367549,0.135626
9552,-0.446432,0.382753
9553,0.374028,0.140357
9554,-0.260324,0.0792266
9555,0.451872,0.205057
9556,0.0408428,0.0977278
9558,-1.02671,1.08254
9559,0.120357,0.015078
9560,0.227655,0.078362
9561,0.382823,0.149881
9563,-0.591204,0.353166
9564,-0.0698674,0.00972885
9565,-0.899278,0.811291
9566,-0.0478645,0.00377263
9567,-0.551785,0.309314
9568,0.538444,0.290631
9569,-0.678536,0.46252
9571,0.202333,0.0703795
9572,0.945924,0.895225
9573,-0.28788,2.1158
9574,0.145021,0.0229009
9575,1.0372,1.17185
9576,-1.06116,1.14555
9577,-0.565602,0.337673
9578,-1.47006,2.24692
9579,-0.111736,0.0205998
9580,0.484232,0.23609
9581,-0.142759,0.11644
9583,-0.342182,0.119345
9584,-0.656747,0.443285
9585,0.0335613,0.00261619
9586,-0.854117,0.736757
9587,-1.20836,1.47029
9588,-1.48782,2.21924
9589,-1.87397,3.52005
9590,-0.235997,0.239145
9591,-0.0651175,0.0175951
9592,0.0236872,0.00308644
9593,-0.542785,0.295498
9594,-1.50892,2.28521
9595,-0.0480751,0.0109474
9596,0.272023,0.0775911
9597,-0.664404,0.448132
9598,-1.50107,2.31829
9599,-0.717499,0.519326
9600,0.171478,0.0528544
9601,-0.209723,0.0599884
9602,-0.910151,0.835426
9603,0.254045,0.079933
9604,-0.339388,0.120032
9605,0.227637,0.0608411
9606,0.147347,0.0458629
9607,-0.429684,0.222325
9608,-0.070148,0.00906994
9609,-0.205609,0.0456871
9610,-1.25263,1.57964
9611,-0.714984,0.515395
9612,-0.34534,0.122776
9613,0.105286,0.137179
9614,-1.00844,1.02608
9615,-1.25376,1.58094
9616,0.226205,0.0555907
9617,-0.686452,0.47248
9618,0.481067,0.291633
9619,0.190573,0.0544858
9620,-1.17499,1.50669
9621,-0.088793,0.023889
9622,-0.377799,0.149014
9623,0.198983,0.0427772
9624,-1.65889,2.76527
9625,-0.303533,0.116284
9626,-0.294289,0.0877882
9627,-0.401775,0.163505
9628,0.355104,0.191164
9629,-0.517575,0.27103
9630,-0.513723,0.372957
9631,-0.28788,2.1158
9632,0.555154,0.308526
9633,0.607629,0.369864
9634,-0.0971177,0.0108459
9635,-0.468517,0.234614
9636,-0.409957,0.238838
9637,-0.28788,2.1158
9638,0.513845,0.283521
9639,0.0301458,0.0110677
9640,-0.382502,0.158101
9641,-0.761331,0.639833
9642,-0.491107,0.478644
9643,0.44156,0.216544
9644,-0.676743,0.46213
9645,0.402581,0.169061
9646,-0.0649276,0.0602414
9647,0.291974,0.0877818
9648,-1.58399,2.51713
9649,-0.768249,1.16768
9650,0.585763,0.408183
9651,-0.011193,0.0603331
9652,0.288176,0.419578
9653,-0.359701,0.178577
9654,-0.955814,0.922405
9655,-0.302875,0.669204
9656,0.345898,0.456179
9657,-0.858267,0.742669
9658,-0.0428529,0.097896
9659,-0.741244,0.60965
9660,-1.09545,1.53655
9661,0.18197,0.610584
9662,-0.47621,0.232562
9663,0.0159874,0.00143759
9664,-1.21035,2.04242
9665,-0.28788,2.1158
9666,-0.0895821,0.00988604
9667,-0.397351,0.160114
9668,-0.958317,0.962216
9669,0.0150475,0.00467298
9670,-0.755401,0.605105
9671,0.188588,0.0525834
9672,0.441222,0.195321
9673,0.0864641,0.00893093
9674,-0.56856,0.334883
9675,-0.936032,0.877193
9676,0.132037,0.0222236
9677,-0.1223,0.0241863
9678,0.158249,0.0371908
9679,-0.770892,0.598579
9680,-0.710656,0.508141
9681,-0.140553,0.0266848
9682,-1.29255,1.67211
9683,0.0722358,0.00627877
9684,0.268651,0.0738148
9685,-0.185858,0.0360358
9686,0.0594696,0.00566262
9688,-0.138839,0.0202536
9689,-0.99281,0.998809
9690,0.307137,0.243791
9691,-0.748938,0.563133
9692,-1.58598,2.52245
9693,-0.48313,0.235924
9694,0.0592306,0.0121444
9695,-0.987132,0.976188
9696,-1.32371,1.75364
9697,-1.22482,1.5101
9698,-0.00527181,0.00368751
9699,0.355421,0.130251
9700,-0.777542,0.610358
9701,-0.0727673,0.0468788
9702,-1.17306,1.39274
9703,-0.190628,0.0381259
9704,-1.87842,3.53711
9705,-0.37545,0.157291
9706,0.0609943,0.0311584
9707,-0.234078,0.0853488
9708,-0.700978,0.492787
9709,-0.768406,0.594263
9710,-0.246679,0.0685035
9711,-0.288602,0.0875274
9712,-0.220261,0.100902
9713,0.166897,0.0358886
9714,-0.956733,0.926035
9715,-0.643291,0.750356
9716,-1.36161,1.85768
9717,0.234341,0.0586953
9718,-0.698431,0.492712
9719,-0.746845,0.559242
9720,-0.294802,0.133273
9721,-0.223216,0.0511578
9722,0.170655,0.0359937
9723,-0.889538,0.856342
9724,-0.717965,0.539626
9725,-0.912825,0.859785
9726,-0.463635,0.218923
9727,-0.84126,0.711684
9728,0.015157,0.00967494
9729,-0.0201204,0.0101939
9730,-0.571597,0.330399
9731,-0.960181,0.923187
9732,-0.881815,0.792992
9733,-0.317077,0.120022
9735,0.0588175,0.0269091
9736,-1.80557,3.31611
9737,0.407498,0.172591
9738,0.619474,0.412152
9739,0.297841,0.0937381
9740,-0.623266,0.39073
9741,-0.900797,0.82396
9742,-0.410211,0.172401
9743,-0.164475,0.0630656
9744,-1.66338,2.79525
9745,-0.0594169,0.00597905
9746,0.252907,0.0645332
9747,-0.119745,0.0164263
9748,-0.343116,0.120899
9749,-1.34835,2.39551
9750,-0.973955,0.954822
9751,-1.21112,1.52701
9752,0.00746242,0.00749678
9753,-0.0352854,0.00355358
9754,-0.492606,0.243882
9755,0.490997,0.243407
9756,0.0119801,0.00357003
9757,-1.17067,1.37593
9758,0.0852706,0.00814082
9759,-0.352054,0.126413
9760,-0.596034,0.35839
9761,-0.537261,0.313546
9762,-0.695299,0.488231
9763,-0.789682,0.641365
9764,-0.302025,0.118657
9765,-0.112132,0.0226062
9766,-1.51441,2.37101
9767,-1.32699,1.83848
9768,-0.537959,0.360173
9769,0.644283,0.416226
9770,0.230284,0.0547201
9771,-0.558453,0.317698
9772,0.225674,0.0540144
9773,-0.926791,0.885477
9774,-0.316468,0.143996
9775,-0.334446,0.114049
9776,-0.0578743,0.00444179
9777,-0.488813,0.259945
9778,-1.43758,2.07877
9779,-0.846672,0.720547
9780,-0.393265,0.161709
9781,-1.28292,1.65146
9782,-0.571236,0.334188
9783,0.862249,0.743744
9784,-0.0245833,0.00343054
9785,0.317038,0.105192
9786,0.275474,0.10429
9787,-0.0640519,0.153561
9788,0.327053,0.108008
9789,-0.187618,0.036344
9790,-0.996319,0.998397
9791,-0.133967,0.0327751
9792,0.0651824,0.018809
9793,-0.674392,0.464963
9794,-0.290325,0.0970116
9795,0.14649,0.023563
9796,-0.540597,0.295545
9797,-1.27965,1.67056
9798,-0.923622,0.86311
9799,-0.933596,0.875132
9800,-0.424254,0.184725
9801,-0.531439,0.302394
9802,0.165229,0.0446851
9803,0.0803178,0.0102485
9804,0.136164,0.0219964
9805,-0.322851,0.107977
9806,-0.372843,0.182856
9807,-0.28788,2.1158
9808,-0.28788,2.1158
9809,-0.220467,0.626077
9810,-0.423098,0.216709
9811,-0.425075,0.18184
9812,-0.244623,0.0649324
9813,0.337639,0.11879
9814,-1.27128,1.63283
9815,-0.364665,0.13408
9816,0.550307,0.303711
9817,-0.45211,0.223428
9818,-0.560211,0.341274
9819,0.714227,0.510492
9820,-0.286744,0.110627
9821,0.446245,0.233609
9822,0.106823,0.017036
9823,0.259154,0.0683043
9824,-0.192637,0.0556954
9825,0.243797,0.0687728
9826,-0.567206,0.32365
9827,-0.344303,0.141331
9828,-0.948146,0.905313
9829,0.574444,0.332398
9830,0.438588,0.195673
9831,0.358443,0.132467
9832,0.0801303,0.0230871
9833,-0.855932,0.858713
9834,-0.236331,0.633323
9835,-0.99185,0.990943
9836,-0.814823,0.678765
9837,0.177629,0.034237
9838,-1.06156,1.13217
9839,-0.189858,0.0367686
9840,-0.514645,0.266117
9841,0.973146,0.947376
9842,0.382661,0.14938
9843,-0.209771,0.0689013
9844,0.175856,0.0440628
9845,0.201364,0.0443994
9846,0.293395,0.110232
9847,-1.17611,1.39957
9848,0.738078,0.557897
9849,-0.987642,0.977687
9850,-0.615301,0.384181
9851,-0.216013,0.0474761
9852,-0.863443,0.750932
9853,-0.565095,0.357029
9854,-1.02984,1.06558
9855,-0.257725,0.0683873
9856,0.0844708,0.0141861
9857,-0.0235197,0.0200375
9858,-0.670217,0.490775
9859,0.357912,0.129264
9860,-0.661483,0.441204
9861,-0.197381,0.040157
9862,-0.239262,0.0668032
9863,0.221993,0.0749713
9864,0.134201,0.0195658
9865,-1.25621,1.59709
9866,-0.500002,0.251054
9867,0.221453,0.0507598
9868,0.0878638,0.0144195
9869,-0.264615,0.0874055
9870,0.145295,0.0228817
9871,0.0601199,0.00437577
9872,-0.212272,0.0466242
9873,-0.32013,0.105617
9874,-0.310653,0.103261
9875,-0.204753,0.0430221
9876,-0.163444,0.0386816
9877,-1.20578,1.45693
9878,0.404037,0.163614
9879,0.196876,0.0394143
9880,-0.240311,0.0634539
9881,-0.241671,0.0999885
9882,-1.11183,1.24249
9883,-0.175086,0.0336603
9884,-0.238899,0.0604418
9885,0.489438,0.252477
9886,0.228952,0.0531384
9887,-0.390754,0.163986
9888,-0.76202,0.583882
9889,-0.264114,0.0704399
9890,-0.177374,0.0324667
9891,-0.186437,0.0485712
9892,-0.626478,0.39443
9893,-0.252539,0.0675733
9894,-0.248609,0.0636893
9895,0.308576,0.0983405
9896,-1.4909,2.22718
9897,-0.191461,0.0830217
9898,-0.324703,0.107734
9899,-0.0470883,0.00270603
9900,-0.723711,0.529503
9901,-0.733622,0.54005
9902,-0.0294691,0.0014444
9903,-0.331116,0.113453
9904,-0.505796,0.258791
9905,-0.323242,0.107469
9906,-0.57906,0.355277
9907,-0.0223349,0.0780797
9908,-0.679565,0.488344
9909,-0.817314,0.675879
9910,0.10444,0.0191892
9911,0.16715,0.0674842
9912,0.0942373,0.0224604
9913,-0.190459,0.0562414
9914,-0.559297,0.344573
9915,-1.7145,2.94716
9916,-0.075978,0.0496168
9917,-0.28788,2.1158
9918,-0.0243451,0.578063
9919,-1.18562,1.47076
9920,0.280572,0.656191
9921,-0.28788,2.1158
9922,-0.28788,2.1158
9923,-0.324611,0.441905
9924,-0.108007,0.589136
9925,-0.28788,2.1158
9926,0.539655,0.474679
9927,-1.5069,2.27472
9928,0.0786515,0.102246
9929,-0.650386,0.427173
9930,-0.326576,0.117793
9931,-0.363669,0.148584
9932,-0.586456,0.345671
9933,-0.7362,0.602199
9934,-0.00111108,0.00273176
9935,-0.950227,0.906218
9936,-0.83929,0.713331
9937,-1.01038,1.02536
9938,-1.1149,1.25202
9939,0.0332958,0.00497906
9940,-0.906835,0.849788
9941,-1.34369,1.81066
9942,-1.12512,1.26819
9943,-0.109688,0.0205761
9944,-0.314552,0.112996
9945,-0.497645,0.251294
9946,-0.836809,0.710947
9947,0.117607,0.0214844
9948,-0.489934,0.243029
9949,-1.03989,1.08622
9950,0.418141,0.177904
9951,-1.15468,1.3376
9952,-1.10363,1.25106
9953,0.141232,0.02213
9954,-1.01903,1.04048
9955,-0.589616,0.364313
9956,-0.606396,0.368891
9957,-0.927778,0.862284
9958,-0.754781,0.575399
9959,-1.35375,1.84515
9960,-0.950651,0.90903
9961,0.414792,0.508585
9962,0.204583,0.0427047
9963,0.0802335,0.00769106
9964,-0.688038,0.474656
9965,-0.183573,0.0593891
9966,-1.18272,1.40874
9967,-0.834381,0.704226
9968,0.452851,0.208244
9969,-0.920323,0.872684
9970,0.109416,0.0155034
9971,0.109014,0.0231814
9972,-0.299182,0.0930416
9973,-0.342596,0.124953
9974,-0.242324,0.0797275
9975,-0.361864,0.142913
9976,-0.0633721,0.00499443
9977,-0.991136,0.985176
9978,0.474337,0.233632
9979,0.491045,0.241529
9980,-0.220365,0.0577897
9981,-0.751423,0.570261
9982,-1.3758,1.91383
9983,-0.233222,0.0637286
9984,-0.877833,0.798996
9985,-0.723942,0.54111
9986,-0.789934,0.627724
9987,-0.0981984,0.0172958
9988,-0.808824,0.655603
9989,-0.279526,0.0929624
9990,-0.27129,0.0759
9991,-0.550785,0.314987
9992,-1.71327,2.95631
9993,0.0880318,0.00909526
9994,-0.666981,0.463032
9995,-1.34024,1.80157
9996,0.258558,0.0676815
9997,0.384348,0.150305
9998,-0.735415,0.563622
9999,-0.0547614,0.00712677
10000,-0.859647,0.772054
10001,-0.737552,0.55003
10002,0.130402,0.0173066
10003,-0.190454,0.0390126
10004,-0.0967229,0.0139279
10005,0.186919,0.0457804
10006,-0.858791,0.764961
10007,-0.996092,0.993811
10008,-0.76726,0.601213
10009,-0.938871,0.894405
10010,-0.168801,0.0489672
10011,-1.07466,1.16319
10012,-0.181747,0.0373826
10013,-0.182004,0.036923
10014,0.161455,0.0284725
10015,0.0511,0.00531429
10016,-0.332288,0.112352
10017,-0.149254,0.0413015
10018,-0.266101,0.0923783
10019,0.393175,0.155795
10020,-0.75561,0.587964
10021,-0.68992,0.492318
10022,-0.213081,0.0463656
10023,-0.0445418,0.0105286
10024,-1.5492,2.40521
10025,-0.0156323,0.0604522
10026,-0.508538,0.263132
10027,-1.04058,1.09443
10028,-0.147692,0.0288637
10029,0.0590111,0.00609774
10030,0.333393,0.112587
10031,0.0617739,0.00514178
10032,-0.876743,0.787704
10033,-0.614496,0.382898
10034,-0.681996,0.469614
10035,-0.382469,0.15825
10036,0.0254192,0.00297465
10037,0.303291,0.0937766
10038,-0.644098,0.418109
10039,-0.412519,0.172281
10040,-0.964379,0.935426
10041,-1.64291,2.70313
10042,-0.770691,0.59612
10043,-0.159787,0.0324024
10044,0.0697244,0.0145332
10045,0.168179,0.0351547
10046,-0.0228935,0.00221722
10047,-0.20787,0.0809066
10048,-0.933973,0.968366
10049,0.94853,0.900059
10050,-0.86399,0.758272
10051,0.461844,0.214419
10052,-0.270712,0.409818
10053,0.163386,0.0290787
10054,-0.472689,0.225506
10055,-0.767641,0.593238
10056,0.193133,0.0401168
10057,0.248659,0.0645076
10058,-0.324089,0.119594
10059,-0.363381,0.135935
10060,0.266941,0.0738149
10061,0.0169755,0.00110588
10062,-1.26395,1.60232
10063,0.74121,0.54984
10064,-0.911566,0.834861
10065,-0.238563,0.0580942
10066,-0.92231,0.856889
10067,-0.65784,1.01022
10068,-1.63229,2.66668
10069,-0.751957,0.571923
10070,-1.07525,1.16203
10071,0.0712367,0.0101992
10072,-0.480636,0.235533
10073,0.12858,0.0173423
10074,-0.48876,0.24041
10075,0.244281,0.0611306
10076,-0.722471,0.55252
10077,0.280546,0.0799311
10078,0.640987,0.416956
10079,1.3353,2.11955
10080,-1.01577,1.03776
10081,-0.302563,0.241003
10082,-0.289084,0.179629
10083,0.0668972,0.064683
10084,0.168863,0.0302006
10085,-0.272299,0.120511
10086,-1.18922,1.43202
10087,-0.426412,0.194965
10088,-0.527715,0.338691
10089,-0.010791,0.0561422
10090,0.235554,0.0782729
10091,-0.597457,0.364989
10092,-0.027153,0.0352117
10093,0.0962646,0.0327165
10094,0.674393,0.79134
10095,0.0291641,0.0385474
10096,-0.146656,0.0261066
10097,-0.714222,0.517623
10098,-0.0601463,0.581088
10099,-0.905373,0.834261
10100,0.882289,1.11497
10101,-0.807046,1.22879
10102,-0.287955,0.0958448
10103,0.481847,0.237881
10104,-0.284556,0.417505
10105,0.226723,0.0798077
10106,0.0745747,0.583032
10107,-0.548059,0.302296
10108,-0.487553,0.238902
10109,-0.167739,0.0288537
10110,0.165196,0.0278864
10111,0.448161,0.201153
10112,0.273552,0.0753865
10113,-1.04352,1.42547
10114,-0.00199689,0.000567486
10115,0.815073,0.664657
10116,0.314127,0.0997325
10117,0.258169,0.0674119
10118,0.251025,0.064632
10119,-0.0784692,0.00692824
10120,0.608196,0.465962
10121,0.531224,0.28525
10122,-0.489317,0.265966
10123,0.220956,0.626292
10124,0.466418,0.23703
10125,-0.547239,0.313283
10126,-0.28788,2.1158
10127,-0.379727,0.147755
10128,-1.2929,1.68022
10129,-0.469009,0.556503
10130,0.745862,0.556631
10131,-0.899927,0.821837
10132,-0.0786134,0.0074844
10133,-1.18722,1.41322
10134,-1.00304,1.01624
10135,-0.0105273,0.00989992
10136,-0.59854,0.444087
10137,0.386304,0.161198
10138,-0.21728,0.0501077
10139,0.197013,0.0851784
10140,-1.33923,1.87936
10141,-0.835895,0.723618
10142,-0.28788,2.1158
10143,0.151838,0.0420796
10144,-0.444335,0.434892
10145,-0.0319143,0.578489
10146,-0.28788,2.1158
10147,-1.07678,1.20103
10148,0.19089,0.0430831
10149,0.331089,0.111282
10150,-0.28788,2.1158
10151,-0.606468,0.47685
10152,-1.41857,2.02305
10153,0.323327,0.164748
10154,0.120569,0.0540819
10155,-1.84878,3.65545
10156,0.159841,0.0359708
10157,-0.28788,2.1158
10158,-0.968118,0.942998
10159,-0.23597,0.0972657
10160,-0.772337,0.606793
10161,-0.804944,0.659231
10162,-1.79401,3.79594
10163,-1.14668,1.89236
10164,-1.22396,1.73553
10165,-0.955354,1.49017
10166,0.0622159,0.0434158
10167,0.028763,0.00265467
10168,-0.248503,0.062282
10169,0.780574,0.658487
10170,-0.0661125,0.0133934
10171,-0.955354,1.49017
10172,-0.508673,0.344585
10173,-0.452063,0.205678
10174,-0.28788,2.1158
10175,-1.69538,3.45179
10176,-1.05417,1.13175
10177,0.0790818,0.342787
10178,-0.417028,0.751383
10179,0.272955,0.106264
10180,-1.44773,2.43246
10181,-0.106108,0.0127941
10182,-0.538661,0.296438
10183,-0.236538,0.0590007
10184,-0.326761,0.202832
10185,0.280419,0.101422
10186,0.0665381,0.241886
10187,-1.49663,2.25693
10188,0.804869,0.664832
10189,0.738647,0.580074
10190,0.716936,0.528299
10191,0.00388913,0.00178242
10192,-0.746474,0.893757
10193,-1.00871,1.01893
10194,-0.487534,0.239777
10195,-0.28788,2.1158
10196,-0.28788,2.1158
10197,0.701683,0.494991
10198,-0.148804,0.358676
10199,-0.290809,0.097095
10200,0.501219,0.303607
10201,-0.145458,0.204609
10202,-0.28788,2.1158
10203,-1.64843,3.29479
10204,-0.201989,0.0673351
10205,-0.370924,0.375043
10206,-1.26042,1.59243
10207,-1.39277,2.27634
10208,-0.659166,0.441144
10209,-1.40494,1.98143
10210,-0.28788,2.1158
10211,-1.00775,1.02127
10212,-0.33756,0.119904
10213,-0.165231,0.210752
10214,-0.797633,0.645664
10215,-0.793173,0.778582
10216,-0.28788,2.1158
10217,-0.171788,0.0350587
10218,0.0745747,0.583032
10219,0.304085,0.121908
10220,-1.8169,3.37871
10221,-1.33379,1.79803
10222,0.164523,0.0492289
10223,-0.902565,1.15116
10224,-0.315183,0.102269
10225,-0.117609,0.0150191
10226,-0.627755,0.399663
10227,-1.10947,1.24663
10228,-1.14031,1.31324
10229,-0.10598,0.347765
10230,-0.28788,2.1158
10231,0.221661,0.0543918
10232,0.0610431,0.0191201
10233,-0.839807,0.73368
10234,-0.113696,0.590398
10235,-0.0954643,0.0332652
10236,-0.707819,0.504376
10237,0.7954,0.6345
10238,-0.28788,2.1158
10239,0.165935,0.0569754
10240,-0.28788,2.1158
10241,-0.462034,0.215413
10242,-0.663255,0.448733
10243,-0.189523,0.121756
10244,-0.28788,2.1158
10245,0.221489,0.0527677
10246,0.630058,0.634431
10247,-1.58425,3.0873
10248,-0.657721,0.449614
10249,-0.794168,0.756796
10250,-0.0185165,0.000944614
10251,-0.743461,0.790193
10252,-0.274192,0.083136
10253,-0.561536,0.316049
10254,-1.57039,2.4688
10255,-0.28788,2.1158
10256,-0.28788,2.1158
10257,0.340087,0.118225
10258,-1.13174,1.28545
10259,-1.04979,1.10957
10260,-0.53528,0.523983
10261,0.917972,0.843899
10262,0.390347,0.178061
10263,-1.48816,2.22918
10264,-0.371499,0.139944
10265,-0.365953,0.317373
10266,0.898927,0.80866
10267,0.217594,0.099734
10268,-0.28788,2.1158
10269,-0.321738,0.128413
10270,-0.721112,0.58021
10271,0.266915,0.15708
10272,-0.0993171,0.193315
10273,0.396538,0.340693
10274,0.562632,0.894026
10275,0.512778,0.276521
10276,0.0622203,0.0280231
10277,-0.755543,0.577382
10278,-1.37907,1.90453
10279,-0.641066,0.988437
10280,-0.172865,0.0407241
10281,-0.924544,0.859488
10282,-0.0136371,0.00821999
10283,-0.297914,0.121814
10284,-0.28788,2.1158
10285,-0.161927,0.091285
10286,-0.28788,2.1158
10287,0.429397,0.228226
10288,-0.28788,2.1158
10289,-0.28788,2.1158
10290,-0.187678,0.612694
10291,-0.319126,0.187679
10292,-0.488261,0.42185
10293,-0.28788,2.1158
10294,0.297142,0.0893667
10295,-0.848499,0.735344
10296,-0.236842,0.0565605
10297,-0.124696,0.02335
10298,-0.953766,0.915216
10299,-0.382983,0.148742
10300,-0.800433,0.642786
10301,-0.178384,0.0328747
10302,-0.553574,0.308196
10303,0.952703,1.1451
10304,-0.59209,0.351421
10305,0.0468231,0.338725
10306,-0.28296,0.657537
10307,-0.316271,0.43656
10308,0.409756,0.74537
10309,-0.506576,0.3342
10310,-0.28788,2.1158
10311,-0.28788,2.1158
10312,-0.0581385,0.240838
10313,-0.28788,2.1158
10314,-0.851249,0.728571
10315,-0.259896,0.0699292
10316,0.513337,0.264794
10317,-0.421603,0.184393
10318,-0.163418,0.0285928
10319,0.199938,0.0540281
10320,-0.460784,0.215778
10321,-0.0591929,0.00584584
10322,-0.433543,0.201315
10323,-0.41733,0.23019
10324,-0.356613,0.145759
10325,-1.13577,1.29762
10326,-2.09531,4.39703
10327,0.305786,0.179342
10328,-0.28788,2.1158
10329,-0.905679,0.837272
10330,-0.0435901,0.579371
10331,-1.48396,2.32822
10332,-0.28788,2.1158
10333,-0.905038,0.823353
10334,-0.28788,2.1158
10335,-0.458731,0.393885
10336,-1.31513,2.06611
10337,-0.28788,2.1158
10338,-0.119296,0.197682
10339,0.297239,0.116755
10340,-0.28788,2.1158
10341,-0.741533,1.12734
10342,-0.4394,0.529606
10343,-0.688564,0.488949
10344,-1.08853,1.19104
10345,-0.702578,0.496346
10346,0.27669,0.116102
10347,-0.165741,0.0288992
10348,-1.27728,1.64173
10349,-1.46478,2.32904
10350,-0.375304,0.148654
10351,-0.972849,0.949833
10352,-0.0794682,0.0100084
10353,0.206577,0.0442828
10354,-1.35512,1.84231
10355,-1.04818,1.11468
10356,0.0913026,0.0400957
10357,-1.02568,1.05734
10358,-1.44618,2.66891
10359,0.26879,0.181294
10360,-0.28788,2.1158
10361,0.14239,0.0412817
10362,-1.47521,2.28529
10363,-0.13066,0.0222294
10364,-1.05636,1.11748
10365,0.187242,0.0615951
10366,-0.0622989,0.0102125
10367,-0.364476,0.134153
10368,0.376615,0.379297
10369,0.248719,0.157921
10370,-0.28788,2.1158
10371,-0.28788,2.1158
10372,-0.28788,2.1158
10373,1.00106,1.00249
10374,-0.37017,0.714497
10375,0.11177,0.0900735
10376,-0.114077,0.0159639
10377,0.108783,0.0375239
10378,0.0140006,0.0777769
10379,0.225616,0.115967
10380,-0.692853,1.05752
10381,0.316921,0.101848
10382,-1.32713,1.79433
10383,-0.564441,0.896064
10384,-0.308903,0.114446
10385,-1.44521,2.10496
10386,-0.28788,2.1158
10387,-0.464543,0.793271
10388,-0.28788,2.1158
10389,-0.546896,0.395155
10390,-0.0804849,0.0246456
10391,-0.656976,0.469314
10392,-0.0941447,0.0419246
10393,0.312587,0.675181
10394,-0.722941,0.526042
10395,-1.25193,1.56982
10396,-1.13243,1.29281
10397,-0.671462,0.464441
10398,-0.559142,0.649173
10399,-1.04196,1.10427
10400,-0.902488,0.822211
10401,-0.727518,0.865816
10402,-1.34867,1.83559
10403,-1.02317,1.38342
10404,-0.28788,2.1158
10405,-1.25732,1.58526
10406,0.241442,0.0635869
10407,0.190765,0.0480142
10408,-0.28788,2.1158
10409,-1.58004,2.83306
10410,-0.105009,0.0267203
10411,0.265231,0.078545
10412,0.702867,0.495407
10413,0.688294,0.474822
10414,0.206113,0.0448315
10415,0.023523,0.00517836
10416,0.344478,0.119858
10417,0.751955,0.566327
10418,0.943772,0.891473
10419,0.701169,0.493792
10420,0.589171,0.351427
10421,0.333682,0.118997
10422,0.842332,0.710137
10423,0.545321,0.299308
10424,0.741765,0.551185
10425,0.632662,0.402894
10426,0.893519,0.798859
10427,0.852163,0.726954
10428,0.469937,0.222109
10429,0.375363,0.143105
10430,0.645971,0.419174
10431,-0.0135486,0.0106051
10432,0.130028,0.021166
10433,0.741356,0.550078
10434,0.375597,0.141771
10435,0.349766,0.125004
10436,0.873457,0.764642
10437,0.843876,0.712849
10438,0.586555,0.344517
10439,-0.297983,0.153858
10440,0.661627,0.43975
10441,0.428931,0.193539
10442,0.649072,0.423382
10443,0.296701,0.0966674
10444,0.75843,0.577027
10445,0.399528,0.163531
10446,0.295148,0.0913709
10447,0.528546,0.28118
10448,0.10779,0.0142685
10449,0.0443232,0.0132618
10450,0.514449,0.27075
10451,0.166558,0.0459095
10452,-0.0943949,0.0132146
10453,-0.468644,0.290401
10454,0.438014,0.193988
10455,0.214632,0.0537196
10456,0.636616,0.408039
10457,0.38462,0.152639
10458,0.299157,0.0977761
10459,0.505596,0.258836
10460,0.33919,0.120048
10461,0.551214,0.308118
10462,0.271755,0.0800366
10463,0.446994,0.203549
10464,0.709791,0.506561
10465,0.659849,0.437431
10466,0.0310975,0.00396112
10467,0.767344,0.589923
10468,0.704231,0.498045
10469,0.586645,0.346103
10470,-0.0427735,0.0217963
10471,-0.154964,0.0455821
10472,-0.0602506,0.063838
10473,0.230133,0.0667733
10474,-0.0127082,0.0397065
10475,-0.058953,0.0379499
10476,0.271258,0.144355
10477,-0.0304548,0.0157554
10478,0.0113133,0.0158214
10479,0.545052,0.300265
10480,0.242604,0.18495
10481,-0.222615,0.0840317
10482,0.0318606,0.00214257
10483,0.673669,0.454593
10484,-0.0654012,0.0258458
10485,0.509264,0.262321
10486,-0.538209,0.415763
10487,0.41148,0.179105
10488,0.360321,0.179023
10489,-0.755143,0.906774
10490,0.0856219,0.0216332
10491,-1.1242,1.60036
10492,0.399525,0.167654
10493,-0.28788,2.1158
10494,-0.854889,0.880294
10495,-0.843637,0.895175
10496,0.110251,0.0220647
10497,-0.28788,2.1158
10498,-0.664548,0.465776
10499,0.22054,0.232089
10500,-0.0577739,0.00680857
10501,-0.607925,0.38954
10502,-0.00908443,0.0117054
10503,0.895498,1.37939
10504,-1.07143,1.16279
10505,0.0402522,0.00635384
10506,-0.856033,0.772337
10507,-0.283477,0.166196
10508,0.508294,0.260153
10509,-0.677108,0.461621
10510,-0.185767,0.0629137
10511,-0.423636,0.188104
10512,-0.225295,0.053574
10513,-0.500441,0.289986
10514,-0.28788,2.1158
10515,0.632537,0.496163
10516,-0.53566,0.293576
10517,-1.02547,1.05954
10518,-1.2611,1.59604
10519,-0.50759,0.267936
10520,-0.551423,0.307538
10521,-0.290469,0.0926539
10522,-0.37378,0.142479
10523,-0.345201,0.122491
10524,-0.789627,0.629467
10525,0.195888,0.0410483
10526,-0.0712514,0.00819828
10527,-0.355792,0.132502
10528,-0.254222,0.0680697
10529,-0.395894,0.16189
10530,-0.012559,0.00307596
10531,-0.480638,0.237549
10532,0.198675,0.0408737
10533,-0.348742,0.123677
10534,-0.9455,0.897231
10535,0.175543,0.0322122
10536,0.475677,0.229911
10537,-0.297964,0.0951637
10538,-0.0159613,0.00300391
10539,0.0786607,0.102247
10540,-0.469421,0.222698
10541,0.274299,0.0760375
10542,0.177376,0.0328813
10543,-0.58336,0.342803
10544,-0.11939,0.0167794
10545,0.200668,0.0418028
10546,-0.0770326,0.00874057
10547,0.0560587,0.00790412
10548,0.265311,0.0713038
10549,0.479706,0.230602
10550,-0.958759,0.920529
10551,-0.0672327,0.0752938
10552,0.418029,0.412207
10553,-0.379947,0.293817
10554,0.394076,0.156996
10555,-0.111719,0.0140076
10556,-0.624627,0.397599
10557,-0.232375,0.0767851
10558,-0.28788,2.1158
10559,0.456546,0.217357
10560,-0.0521859,0.00458018
10561,-0.313125,0.0998341
10562,0.28983,0.0895112
10563,-0.164666,0.0353121
10564,-0.28788,2.1158
10565,-0.559131,0.335414
10566,-0.137497,0.0288148
10567,-0.909445,0.868673
10568,0.0146588,0.0162197
10569,0.0169946,0.00322832
10570,-0.388749,0.221899
10571,-0.098531,0.0113909
10572,0.30979,0.0969957
10573,0.0237437,0.00271813
10574,-0.942417,1.22468
10575,-0.430566,0.215943
10576,-0.668736,0.451059
10577,-0.28788,2.1158
10578,0.55138,0.308618
10579,0.236702,0.0905021
10580,0.212799,0.0680706
10581,0.459288,0.218252
10582,-0.459211,0.547408
10583,-0.204056,0.191097
10584,0.349675,0.122887
10585,-0.28788,2.1158
10586,0.445461,0.23291
10587,0.442189,0.196615
10588,0.311804,0.0993875
10589,0.455456,0.208048
10590,0.461145,0.213526
10591,0.0142393,0.00205956
10592,0.244382,0.0649465
10593,0.00541442,0.00493568
10594,0.556356,0.310707
10595,0.229029,0.0585928
10596,0.57465,0.332349
10597,0.0472214,0.046074
10598,-0.391611,0.154533
10599,0.485611,0.236458
10600,0.515572,0.26652
10601,-0.815213,0.666732
10602,-0.0369278,0.00243712
10603,-0.119277,0.0154125
10604,0.159172,0.0259919
10605,0.267056,0.0727307
10606,0.353419,0.127247
10607,0.407963,0.166789
10608,-1.01107,1.17171
10609,0.489676,0.243931
10610,-0.907839,0.826091
10611,-0.0582,0.00418553
10612,-1.82708,3.52166
10613,0.39836,0.160695
10614,0.653832,0.429165
10615,-1.82285,3.34181
10616,-0.28788,2.1158
10617,-1.6659,3.01268
10618,-0.28788,2.1158
10619,-0.28788,2.1158
10620,-0.28788,2.1158
10621,0.598266,0.366467
10622,0.0345475,0.0239806
10623,-0.729642,0.548382
10624,-0.510262,0.286057
10625,-1.44812,2.67453
10626,0.0626113,0.0502845
10627,0.72272,0.587388
10628,-0.922848,1.42912
10629,-0.271747,0.0972958
10630,0.0962047,0.0110227
10631,-0.501835,0.312046
10632,-0.28788,2.1158
10633,0.159573,0.0496152
10634,0.139228,0.021374
10635,0.274616,0.0775066
10636,-1.2432,1.54809
10637,0.0856825,0.00781169
10638,-0.65607,0.435161
10639,-0.15426,0.0247083
10640,-0.416868,0.177265
10641,0.690577,0.480623
10642,0.619571,0.387528
10643,-1.41977,2.35229
10644,-0.127796,0.352865
10645,-0.361919,0.132965
10646,0.773997,0.599575
10647,-0.28788,2.1158
10648,0.181755,0.142081
10649,0.288672,0.419864
10650,-0.28788,2.1158
10651,-0.28788,2.1158
10652,-0.779716,0.94449
10653,-0.28788,2.1158
10654,0.154504,0.0730634
10655,-0.510439,0.597081
10656,-0.28788,2.1158
10657,0.742182,0.553741
10658,0.926164,0.858694
10659,0.47031,0.404643
10660,0.246098,0.0656563
10661,0.00474554,0.0257127
10662,0.036536,0.0287729
10663,-0.0306001,0.0569621
10664,0.159242,0.0777451
10665,-0.28788,2.1158
10666,-0.28788,2.1158
10667,-0.28788,2.1158
10668,-0.28788,2.1158
10669,-0.28788,2.1158
10670,-0.553245,0.432174
10671,0.361691,0.139365
10672,0.354053,0.133721
10673,-0.168407,0.0699448
10674,0.321014,0.252508
10675,-1.86564,4.05808
10676,-0.28788,2.1158
10677,-0.773322,0.606572
10678,-1.44055,2.11901
10679,0.291152,0.106931
10680,-1.60044,2.60778
10681,0.176299,0.0330232
10682,0.696127,0.485903
10683,-0.365126,0.137383
10684,0.146837,0.171019
10685,0.208445,0.0456387
10686,0.311235,0.103101
10687,0.313086,0.103495
10688,0.849549,0.725235
10689,0.193307,0.0382786
10690,0.367099,0.150767
10691,-0.570868,0.403471
10692,0.0233974,0.00136267
10693,0.358937,0.137661
10694,0.37422,0.14182
10695,0.0549244,0.00445089
10696,0.0870469,0.0130494
10697,0.322662,0.105303
10698,0.602558,0.36607
10699,-0.0800588,0.0125016
10700,-0.405748,0.168483
10701,0.302065,0.0988961
10702,0.877159,0.769875
10703,-0.140138,0.0234363
10704,0.689584,0.475796
10705,0.686962,0.472264
10706,0.893955,0.799477
10707,0.423412,0.180161
10708,0.540326,0.292395
10709,0.59453,0.354447
10710,-0.073903,0.0166029
10711,0.766227,0.588412
10712,0.86039,0.741241
10713,-0.298701,0.092708
10714,0.464554,0.216467
10715,0.897128,0.805707
10716,0.684695,0.469493
10717,0.52295,0.278128
10718,0.362563,0.131732
10719,0.395409,0.159676
10720,0.843654,0.713431
10721,0.690629,0.477455
10722,0.61389,0.377259
10723,0.0519857,0.00355569
10724,0.1472,0.0308968
10725,0.681738,0.467024
10726,0.656846,0.434748
10727,0.721312,0.52093
10728,0.372322,0.139225
10729,0.81528,0.665158
10730,0.53634,0.288303
10731,0.745599,0.557621
10732,0.77021,0.595115
10733,0.721727,0.521474
10734,0.446109,0.202576
10735,0.333385,0.114487
10736,0.571962,0.328331
10737,0.546325,0.299076
10738,0.534082,0.286318
10739,0.0262861,0.0160848
10740,0.787379,0.62077
10741,0.788828,0.623018
10742,0.558742,0.313349
10743,0.583475,0.349366
10744,0.588995,0.349609
10745,0.454078,0.208482
10746,0.576863,0.333155
10747,-0.237693,0.0679559
10748,0.637953,0.407709
10749,0.273489,0.0772748
10750,0.450096,0.203709
10751,0.389816,0.154207
10752,0.421041,0.178218
10753,0.725881,0.527542
10754,0.589648,0.349253
10755,0.474304,0.226064
10756,0.851806,0.726434
10757,0.380151,0.148046
10758,0.762195,0.581622
10759,0.62965,0.397901
10760,0.744422,0.555943
10761,-0.258284,0.0815385
10762,0.639663,0.410525
10763,0.336556,0.114977
10764,0.554231,0.307913
10765,0.542742,0.29502
10766,0.628278,0.397349
10767,0.0349394,0.00269158
10768,0.848939,0.721855
10769,0.574168,0.33082
10770,0.43606,0.193282
10771,0.441499,0.195275
10772,0.570186,0.32592
10773,0.773696,0.599659
10774,0.0294931,0.00341111
10775,0.647583,0.420564
10776,0.383104,0.147081
10777,0.199839,0.0412949
10778,0.733592,0.539408
10779,0.282048,0.0850605
10780,0.18958,0.0377235
10781,0.200447,0.041267
10782,0.751641,0.565831
10783,0.339638,0.117573
10784,0.729534,0.532896
10785,0.230296,0.0571853
10786,0.55805,0.314328
10787,0.457162,0.212725
10788,0.366272,0.13501
10789,0.657017,0.433671
10790,0.772779,0.598677
10791,0.229,0.0534448
10792,-0.0698199,0.00770102
10793,0.516138,0.267544
10794,0.567134,0.322362
10795,0.424264,0.184422
10796,0.0623819,0.00739237
10797,0.475754,0.226837
10798,0.475741,0.227694
10799,0.600049,0.36126
10800,0.606808,0.36895
10801,0.0272822,0.0037721
10802,0.326984,0.108358
10803,0.113784,0.0147699
10804,0.100656,0.0122136
10805,0.720827,0.520692
10806,0.551291,0.306363
10807,0.458346,0.212241
10808,0.309645,0.0969298
10809,0.632508,0.402665
10810,0.665279,0.443164
10811,0.10797,0.0183018
10812,0.0426891,0.00773591
10813,0.463458,0.215308
10814,-0.28788,2.1158
10815,-0.28788,2.1158
10816,-0.0591629,0.0220867
10817,-2.44441,6.0842
10818,-0.172731,0.057274
10819,-1.3222,1.80841
10820,-0.28788,2.1158
10821,-1.20064,1.679
10822,-0.0359851,0.578766
10823,-0.295542,0.107312
10824,-0.28788,2.1158
10825,-0.28788,2.1158
10826,-0.479132,0.230439
10827,0.145344,0.0225931
10828,-1.63342,2.69296
10829,-2.00514,4.03916
10830,-1.79816,3.26938
10831,-1.78441,3.21858
10832,-1.43358,2.06945
10833,-0.652574,0.428123
10834,-1.65607,2.77433
10835,-0.897179,0.827092
10836,-0.593662,0.359364
10837,-0.347929,0.137059
10838,-0.585448,0.350626
10839,0.37994,0.145454
10840,-0.397766,0.160601
10841,-1.65008,2.76045
10842,-1.36699,1.88323
10843,-0.0401785,0.0141396
10844,-0.180157,0.0336561
10845,0.293083,0.0896251
10846,-0.811048,0.672905
10847,-0.719247,0.520391
10848,0.123977,0.0165436
10849,0.386336,0.151488
10850,0.053933,0.00433033
10851,-0.418385,0.179671
10852,-0.16477,0.028936
10853,0.396014,0.16021
10854,-0.300328,0.146223
10855,0.0280706,0.00275815
10856,-0.191851,0.059594
10857,-0.6466,0.426636
10858,-0.791692,0.631057
10859,0.0714707,0.00812451
10860,-0.603729,0.374911
10861,0.10215,0.0110502
10862,0.297654,0.0900686
10863,0.672682,0.453186
10864,-1.24622,1.5567
10865,-0.187869,0.371828
10866,0.548444,0.305851
10867,0.346028,0.12777
10868,-0.681303,0.47135
10869,-0.110163,0.348669
10870,0.260717,0.0817857
10871,-0.291418,0.0923653
10872,-0.62136,0.388302
10873,-0.28788,2.1158
10874,0.242479,0.208254
10875,-0.146527,0.0221806
10876,-0.401855,0.162506
10877,-0.20771,0.0439491
10878,-0.85095,0.725431
10879,0.29307,0.086447
10880,-0.227298,0.0525341
10881,0.0807543,0.00723734
10882,-0.56105,0.315559
10883,-0.30055,0.0917648
10884,-0.762255,0.583216
10885,-0.0333796,0.00210098
10886,-1.5446,2.38843
10887,-0.874066,0.770322
10888,-2.20207,4.9199
10889,0.0976261,0.135624
10890,-0.41058,0.170324
10891,-1.50522,2.84314
10892,0.524191,0.275251
10893,-1.00736,1.01695
10894,-1.75825,3.09529
10895,-0.391893,0.160224
10896,-0.625031,0.391414
10897,0.143211,0.0241859
10898,0.136393,0.0191991
10899,0.475854,0.227
10900,-0.141439,0.0227355
10901,0.127924,0.0171036
10902,0.0965549,0.0220457
10903,-0.564674,0.331579
10904,-0.307429,0.102239
10905,-0.28788,2.1158
10906,-0.0335678,0.00609358
10907,-0.332958,0.121419
10908,-0.566525,0.322647
10909,-0.121685,0.0478686
10910,0.00504288,0.000935395
10911,0.217214,0.0480088
10912,-0.577684,0.335775
10913,-0.698895,0.497377
10914,0.404595,0.165806
10915,0.430979,0.225288
10916,-0.132923,0.0336733
10917,0.146396,0.0262217
10918,0.206593,0.0648419
10919,-0.336083,0.115808
10920,-0.767657,0.607883
10921,0.297703,0.0945405
10922,0.612104,0.483717
10923,-0.21665,0.0829507
10924,-0.608967,0.373708
10925,0.856378,0.78941
10926,-0.28788,2.1158
10927,-0.281109,0.083812
10928,-1.05036,1.13773
10929,-1.24087,1.55546
10930,-0.104548,0.0263242
10931,-0.286771,0.0849499
10932,-2.03413,4.71517
10933,-1.16078,1.35088
10934,-0.911261,0.838431
10935,-1.57498,2.63001
10936,0.62634,0.728835
10937,-0.514425,0.35047
10938,-0.23624,0.093506
10939,-0.855849,0.734987
10940,-1.13803,1.3125
10941,-0.709386,0.513137
10942,-0.105844,0.0128785
10943,-0.303593,0.103466
10944,-0.28788,2.1158
10945,0.0418044,0.0978072
10946,-1.42273,2.02931
10947,0.415706,0.17707
10948,-0.133543,0.0341624
10949,-0.28788,2.1158
10950,0.549723,0.30394
10951,0.350648,0.17898
10952,-1.33027,1.77504
10953,-0.456,0.217725
10954,-0.730053,0.568991
10955,-1.32365,1.76458
10956,-0.516826,0.270136
10957,-0.528978,0.312879
10958,-0.248815,0.0640294
10959,-0.983339,0.975501
10960,-0.973559,0.951545
10961,-0.28788,2.1158
10962,-0.594087,0.376389
10963,-0.302849,0.0972652
10964,0.0324161,0.00743221
10965,0.284723,0.0821881
10966,-0.28788,2.1158
10967,-0.901083,0.817536
10968,-0.181407,0.610379
10969,-0.186322,0.184174
10970,-0.189062,0.0524105
10971,-0.548449,0.320763
10972,-1.32065,1.74962
10973,-0.398253,0.168515
10974,-0.10799,0.013277
10975,-0.0720653,0.0346345
10976,-0.523298,0.275272
10977,-0.201568,0.0436689
10978,-0.162457,0.0391153
10979,-0.721634,0.52646
10980,0.0912878,0.0148175
10981,-0.166789,0.029029
10982,-0.295729,0.196502
10983,-0.489163,0.244247
10984,-0.63714,0.408744
10985,-0.771554,0.616863
10986,-1.66909,2.81642
10987,-0.163195,0.072997
10988,-1.22063,1.53152
10989,-2.12835,4.54805
10990,-0.574067,0.361313
10991,-1.48749,2.22931
10992,-0.354488,0.1318
10993,-1.36441,1.86362
10994,0.25186,0.0641433
10995,-0.94328,0.933621
10996,-0.343005,0.17786
10997,-1.15986,1.35083
10998,0.0814255,0.0558221
10999,-0.127858,0.0353724
11000,-0.210558,0.0664955
11001,0.108073,0.0493766
11002,-0.614139,0.713699
11003,0.162573,0.0594914
11004,-0.367027,0.135777
11005,-0.549366,0.41085
11006,-0.972297,0.949809
11007,0.13021,0.0323485
11008,0.0337666,0.00180933
11009,-0.156137,0.0266548
11010,-0.252689,0.189945
11011,-1.00911,1.0707
11012,-1.01477,1.13881
11013,-0.758886,0.589961
11014,-0.28788,2.1158
11015,-1.28292,1.66406
11016,-0.974783,0.959326
11017,0.0447932,0.00259202
11018,-0.918204,1.17963
11019,-0.322817,0.129901
11020,0.204238,0.112487
11021,-0.547127,0.425441
11022,0.294702,0.11991
11023,0.183759,0.159861
11024,-0.0668551,0.0122705
11025,0.588244,0.348333
11026,-1.99796,4.11794
11027,-0.683759,0.5383
11028,-0.479715,0.233481
11029,-0.0137387,0.00357214
11030,-0.145246,0.130143
11031,-0.585712,0.343701
11032,0.489141,0.250249
11033,0.119239,0.0305466
11034,-0.309412,0.117304
11035,-0.321488,0.439888
11036,-0.72506,0.567296
11037,-0.7692,0.602966
11038,-0.854582,0.752471
11039,-0.426543,0.182784
11040,-0.70089,0.674698
11041,-0.139469,0.0252796
11042,-0.63233,0.736374
11043,-1.70552,2.911
11044,-0.28788,2.1158
11045,-1.37838,2.23647
11046,-0.28788,2.1158
11047,-0.462084,0.396972
11048,-1.29324,1.67379
11049,0.0968888,0.0293541
11050,0.256522,0.0879645
11051,-0.457249,0.255441
11052,-0.383315,0.148649
11053,-0.104136,0.0966814
11054,-0.28788,2.1158
11055,-0.19661,0.0396387
11056,-0.398427,0.193219
11057,0.32342,0.122368
11058,0.216643,0.0774904
11059,-0.222043,0.0498707
11060,-0.320783,0.155289
11061,-0.302497,0.14753
11062,-0.28788,2.1158
11063,-0.28788,2.1158
11064,-0.559556,0.890574
11065,0.136646,0.0189899
11066,-0.764711,0.598363
11067,-0.478586,0.242399
11068,-0.888392,0.818681
11069,0.207046,0.0434515
11070,-0.232483,0.0824527
11071,-0.569899,0.326232
11072,-0.227702,0.0532573
11073,-0.613618,0.379314
11074,-0.165729,0.0291041
11075,-1.06273,1.13101
11076,-0.995454,0.992625
11077,-1.07465,1.16205
11078,-0.768979,0.596295
11079,0.0802033,0.00905651
11080,-1.7223,2.97867
11081,-0.141379,0.0448853
11082,-0.224747,0.0515052
11083,-0.697767,0.494119
11084,-1.76295,3.11996
11085,-0.67663,0.467386
11086,-0.666517,0.454943
11087,-1.36891,1.8925
11088,-0.598332,0.360316
11089,-0.901497,0.825031
11090,-0.837046,0.70977
11091,-1.16892,1.37375
11092,-0.142894,0.021168
11093,-0.694465,0.496841
11094,0.429094,0.18461
11095,-0.312344,0.100971
11096,-0.245075,0.0746218
11097,-0.491002,0.267618
11098,-0.214176,0.0477543
11099,0.0411006,0.00523632
11100,-0.499443,0.251483
11101,0.670323,0.449686
11102,-0.185875,0.0367754
11103,-0.242054,0.06063
11104,-0.189357,0.0453013
11105,-0.748268,0.709364
11106,-1.37055,1.88468
11107,-0.83075,0.70615
11108,0.363754,0.133231
11109,-1.16559,1.36852
11110,-0.415695,0.176024
11111,-0.28788,2.1158
11112,-0.507555,0.264985
11113,-0.732471,1.11398
11114,0.0654809,0.0206165
11115,-1.06625,1.17643
11116,0.109552,0.0150295
11117,0.193183,0.0389095
11118,-0.647861,0.569182
11119,0.175472,0.031625
11120,-0.895263,0.811054
11121,0.337534,0.114602
11122,-0.440037,0.204474
11123,0.29295,0.0888586
11124,-0.923334,0.854242
11125,-0.166337,0.028644
11126,-0.776832,0.612593
11127,-0.580719,0.346158
11128,-0.0969435,0.0135472
11129,0.192053,0.0411431
11130,-0.282059,0.0955623
11131,-0.535459,0.333081
11132,-0.171095,0.212724
11133,0.168565,0.0291627
11134,-0.361751,0.140093
11135,-1.02256,1.05605
11136,-0.426334,0.237787
11137,0.0198767,0.0399401
11138,-0.316401,0.107039
11139,-0.309524,0.204851
11140,0.0298978,0.00539
11141,-0.380733,0.154083
11142,-0.890279,0.832142
11143,0.230635,0.054282
11144,0.600438,0.509984
11145,-0.895996,0.806834
11146,-0.895098,0.840746
11147,-0.707577,0.507779
11148,-0.8553,0.752012
11149,-0.119995,0.0359672
11150,0.014854,0.0100097
11151,-0.284652,0.11704
11152,0.0717697,0.00766053
11153,0.207574,0.0438019
11154,0.431556,0.187011
11155,-0.340189,0.186502
11156,-0.512024,0.262862
11157,-0.645767,0.438583
11158,0.26867,0.073884
11159,-1.44661,2.12575
11160,0.221199,0.0506657
11161,-1.55773,2.43253
11162,0.334157,0.112463
11163,0.155868,0.0279879
11164,0.120091,0.0282341
11165,-0.0647852,0.130291
11166,-0.43691,0.198263
11167,-0.584905,0.344504
11168,-0.263018,0.0718281
11169,-0.470977,0.225015
11170,-0.568787,0.324553
11171,-0.735468,0.580459
11172,0.186544,0.0370942
11173,0.198545,0.0411313
11174,0.0488347,0.0272821
11175,0.0254346,0.0290512
11176,-0.28788,2.1158
11177,-0.28788,2.1158
11178,-0.135095,0.0234412
11179,-0.120798,0.0174284
11180,-1.15529,1.33736
11181,-0.70321,0.507431
11182,0.587497,0.345674
11183,-0.28788,2.1158
11184,-0.28788,2.1158
11185,-1.63798,2.68819
11186,-0.28788,2.1158
11187,-0.871478,1.33694
11188,-0.28788,2.1158
11189,-0.267954,0.073083
11190,-0.469923,0.224314
11191,-1.24613,2.13032
11192,-0.357842,0.188259
11193,-0.28788,2.1158
11194,-0.534188,0.287128
11195,-0.788328,0.730507
11196,0.348538,0.123594
11197,-1.88444,3.66017
11198,-0.10803,0.0121922
11199,-0.204921,0.0429281
11200,-0.28788,2.1158
11201,-0.340183,0.693195
11202,0.103493,0.0451853
11203,-0.760912,0.584857
11204,-0.501113,0.254948
11205,-0.253732,0.100394
11206,0.134502,0.0192043
11207,0.224332,0.0548976
11208,-1.77026,3.14635
11209,0.0844653,0.0078694
11210,-0.418525,0.184953
11211,0.205137,0.0460863
11212,-0.270895,0.0764461
11213,-0.28788,2.1158
11214,-1.95185,3.82672
11215,-0.28788,2.1158
11216,0.126087,0.165356
11217,-0.28788,2.1158
11218,0.239039,0.127913
11219,-1.05066,1.11431
11220,-0.810874,0.672078
11221,0.00950249,0.000979203
11222,0.249766,0.0633055
11223,-0.054548,0.0805564
11224,-1.24755,1.56911
11225,-0.944559,0.896099
11226,-0.720755,0.523553
11227,-0.155412,0.0262297
11228,0.0327224,0.0276061
11229,-0.956715,0.930996
11230,-0.28788,2.1158
11231,0.0687614,0.0127621
11232,0.423857,0.195348
11233,-1.50705,2.27543
11234,-0.82536,0.684766
11235,-0.237682,0.633963
11236,-0.28788,2.1158
11237,-0.504217,0.284791
11238,-0.28788,2.1158
11239,-0.389264,0.154052
11240,-0.112717,0.0542888
11241,-1.00136,1.01975
11242,-1.09063,1.19298
11243,-0.937525,1.21549
11244,-0.28788,2.1158
11245,-0.28788,2.1158
11246,-0.138572,0.0200893
11247,-0.938591,0.882442
11248,0.218036,0.143599
11249,-0.28788,2.1158
11250,-0.623054,0.484256
11251,-0.506002,0.259697
11252,0.380958,0.145696
11253,-0.146343,0.0258874
11254,0.487862,0.574542
11255,0.34844,0.130235
11256,-0.28788,2.1158
11257,-0.437955,0.20691
11258,-0.493087,0.244934
11259,-0.979486,1.0196
11260,-0.109882,0.0174018
11261,0.208441,0.379981
11262,-0.989819,1.1292
11263,0.542128,0.298721
11264,-1.06876,1.16128
11265,-0.124241,0.0192156
11266,-0.660177,0.437894
11267,-0.422173,0.184986
11268,-0.0598394,0.00486842
11269,-0.738015,0.549457
11270,-0.148516,0.0684214
11271,0.430115,0.20716
11272,0.0602171,0.00590849
11273,-0.0183745,0.0605454
11274,-0.00845002,0.0182392
11275,-0.147595,0.0535438
11276,-1.34902,2.39733
11277,-0.497771,0.255731
11278,-0.483725,0.299054
11279,-0.28788,2.1158
11280,-1.35671,2.41813
11281,-0.340502,0.119757
11282,-1.2438,1.58475
11283,-0.186175,0.0423873
11284,-0.895317,0.825745
11285,-2.00486,4.03942
11286,0.436421,0.19834
11287,-0.464271,0.237116
11288,0.625174,0.968313
11289,-1.06576,1.13706
11290,0.183179,0.611025
11291,-0.625434,0.394219
11292,0.433476,0.189537
11293,-0.432804,0.189521
11294,-0.201323,0.0464882
11295,-0.901857,0.825871
11296,-1.27424,1.63531
11297,-0.0427527,0.00685651
11298,-0.52267,0.281639
11299,0.325654,0.442584
11300,-0.126708,0.593526
11301,0.389662,0.179275
11302,0.265785,0.0733179
11303,-0.122807,0.0546266
11304,-0.28788,2.1158
11305,-0.475158,0.230322
11306,-0.877822,0.879618
11307,-0.582891,0.39997
11308,0.774657,0.936626
11309,-0.627601,0.971354
11310,-1.50899,2.3234
11311,-0.504435,0.271121
11312,-1.21375,1.48064
11313,-0.436082,0.201308
11314,-0.381161,0.178345
11315,-0.285314,0.0860828
11316,-0.110431,0.0370923
11317,0.281923,0.0976482
11318,-0.422731,0.41616
11319,-1.47595,2.18249
11320,-1.33771,1.79513
11321,-0.795838,0.704132
11322,-0.10467,0.0257838
11323,-0.482982,0.23753
11324,-1.32759,1.78351
11325,-0.609725,0.708298
11326,-1.18551,1.42114
11327,-0.0891742,0.0190933
11328,0.308492,0.278618
11329,-0.179357,0.10975
11330,0.157442,0.0278975
11331,-0.157063,0.0541097
11332,-0.13984,0.0244615
11333,-0.460066,0.212562
11334,-0.799742,0.823038
11335,-1.52059,2.38298
11336,0.338275,0.150444
11337,-0.13194,0.0479646
11338,-0.922426,0.862663
11339,-1.20694,1.45832
11340,-0.0367667,0.00256581
11341,-0.524995,0.278323
11342,0.135258,0.0196205
11343,-1.02454,1.23312
11344,-1.2483,1.57162
11345,-0.719532,0.519808
11346,0.392623,0.170482
11347,-0.939883,0.992427
11348,-1.3335,1.86407
11349,-0.217925,0.0495006
11350,0.245082,0.0977622
11351,-0.789739,0.625399
11352,-0.354563,0.128348
11353,-0.309983,0.113108
11354,-0.0586242,0.00948334
11355,0.00243404,0.0560317
11356,-0.196399,0.116153
11357,0.65509,0.442281
11358,0.491714,0.39124
11359,-0.357088,0.154047
11360,-0.199131,0.165747
11361,-0.176868,0.0383951
11362,-1.08468,1.51306
11363,-0.133513,0.0427229
11364,0.0756048,0.00736085
11365,0.0880516,0.585224
11366,-0.0723104,0.00603831
11367,0.328735,0.127551
11368,-0.755631,0.572508
11369,0.28871,0.0842412
11370,0.276436,0.0812354
11371,0.229999,0.0550653
11372,0.279908,0.655819
11373,-0.168156,0.0305525
11374,-0.610374,0.373283
11375,-0.632997,0.40189
11376,-0.382993,0.153614
11377,-0.769324,0.594073
11378,0.0855902,0.00864063
11379,-0.0233206,0.0159377
11380,0.280784,0.0794278
11381,-0.97423,0.952359
11382,0.423307,0.196957
11383,-0.285533,0.106426
11384,0.681993,0.46812
11385,-0.129455,0.0441968
11386,0.297851,0.0982725
11387,-0.17536,0.180209
11388,0.512041,0.265765
11389,-0.186764,0.0570417
11390,0.21956,0.0859032
11391,0.453352,0.215949
11392,0.499982,0.257492
11393,0.336726,0.123174
11394,0.234164,0.0675556
11395,0.436678,0.197278
11396,0.538959,0.293889
11397,0.354609,0.134573
11398,0.382546,0.153454
11399,0.503583,0.260351
11400,-0.122154,0.0280589
11401,0.531534,0.284742
11402,0.706942,0.50132
11403,0.426483,0.185814
11404,0.451308,0.204738
11405,0.264883,0.0742284
11406,0.672315,0.455684
11407,0.568501,0.325508
11408,0.057004,0.00702922
11409,0.51439,0.265813
11410,0.543625,0.296464
11411,0.354875,0.126651
11412,0.229247,0.054337
11413,0.424679,0.181942
11414,0.204297,0.0430086
11415,0.0391652,0.00305464
11416,0.000101894,0.00128768
11417,0.49326,0.244573
11418,0.488581,0.239318
11419,0.277769,0.0783918
11420,0.543329,0.298403
11421,0.229393,0.0552887
11422,0.0744209,0.00661192
11423,0.076041,0.00984777
11424,-0.0134345,0.00163538
11425,0.304951,0.0935192
11426,-1.25624,1.58108
11427,-0.930854,0.869495
11428,-1.2902,1.66794
11429,-1.47917,2.19196
11430,-1.35697,1.8451
11431,-0.594654,0.356155
11432,-1.27314,1.6256
11433,-1.54974,2.40572
11434,-1.36294,1.86236
11435,-1.59124,2.5391
11436,-1.45386,2.12088
11437,-1.52891,2.3464
11438,-1.7521,3.07799
11439,0.0606465,0.0052708
11440,-0.912062,0.835986
11441,-1.44051,2.08271
11442,-1.28817,1.66563
11443,-1.39219,1.94452
11444,-1.27247,1.62802
11445,-1.43881,2.08587
11446,-1.88011,3.58719
11447,-1.67985,2.87109
11448,-0.933097,0.87404
11449,-1.46655,2.15683
11450,-1.71088,2.9354
11451,0.121874,0.0158674
11452,-1.18418,1.4067
11453,-1.68414,2.84351
11454,0.410347,0.169296
11455,-1.78417,3.19038
11456,-0.820326,0.679266
11457,0.227182,0.0521073
11458,-0.159731,0.0263115
11459,-0.505074,0.256105
11460,-0.30931,0.0967118
11461,-0.96171,0.927053
11462,-0.177066,0.0324781
11463,-0.136975,0.0195823
11464,-0.811145,0.670291
11465,-0.794541,0.683683
11466,0.00328091,0.00192032
11467,0.452751,0.20706
11468,-0.262655,0.0696842
11469,-0.385477,0.149295
11470,-0.178014,0.032985
11471,-0.380853,0.14952
11472,-0.112705,0.0148229
11473,-0.880141,0.782022
11474,-0.664815,0.446945
11475,0.256021,0.0669152
11476,1.00297,1.00722
11477,0.433914,0.189324
11478,-0.23212,0.0549017
11479,-0.00472738,0.00319295
11480,-0.186602,0.035862
11481,-0.16985,0.0342842
11482,-0.146281,0.0250413
11483,-0.872438,0.766146
11484,-1.13307,1.29009
11485,0.707726,0.50118
11486,0.20053,0.0507703
11487,-0.28788,2.1158
11488,-0.730433,0.555101
11489,-0.584408,0.361499
11490,-0.385128,0.152349
11491,-0.751676,0.567747
11492,-0.554113,0.321094
11493,-1.303,1.70618
11494,-0.142476,0.0351274
11495,-0.757702,0.578177
11496,-0.974832,1.52777
11497,-0.609785,0.37812
11498,-0.872444,0.766707
11499,-1.01967,1.04389
11500,-0.363656,0.137338
11501,-0.923044,0.867404
11502,-0.288168,0.0976011
11503,-0.114318,0.0145724
11504,-0.59896,0.394766
11505,-0.102379,0.0166201
11506,-0.370012,0.158478
11507,-1.10633,1.23168
11508,-0.972443,0.9536
11509,-0.731013,0.538778
11510,-1.26524,1.60294
11511,-0.59588,0.355844
11512,-0.65154,0.443529
11513,-0.198887,0.0834
11514,-0.227113,0.0604056
11515,0.0119987,0.00115297
11516,-0.393234,0.157639
11517,-0.704051,0.500086
11518,-0.101345,0.119317
11519,-0.359409,0.140633
11520,-0.579833,0.432266
11521,0.462757,0.215154
11522,0.0609495,0.00539735
11523,0.584183,0.34885
11524,0.466363,0.218924
11525,0.143949,0.0270032
11526,0.152083,0.0288742
11527,0.26292,0.0721777
11528,0.396517,0.161932
11529,-0.632045,0.40214
11530,0.199477,0.0519392
11531,0.0803464,0.0441524
11532,0.151681,0.0329166
11533,0.152354,0.0244443
11534,-0.131767,0.0225867
11535,0.26109,0.0693821
11536,-0.0485817,0.058386
11537,0.205559,0.0431878
11538,0.130545,0.0178211
11539,-0.782516,0.614564
11540,-0.0211028,0.00351926
11541,-0.535137,0.295008
11542,0.0637332,0.00548851
11543,0.175606,0.0582757
11544,0.0856334,0.00869007
11545,-0.891889,0.797177
11546,-0.346132,0.123177
11547,-0.102038,0.0136459
11548,-0.734518,0.543844
11549,-1.14114,1.30714
11550,-0.699126,0.491696
11551,-0.438004,0.192943
11552,-0.665521,0.450032
11553,0.0921583,0.0100704
11554,-0.0330349,0.00487107
11555,-0.63606,0.415131
11556,-0.0342816,0.00481842
11557,-0.120466,0.0152054
11558,-0.318338,0.153726
11559,-0.0616213,0.00788332
11560,-0.67507,0.477288
11561,-0.265193,0.0854332
11562,-0.240811,0.0588213
11563,-0.269133,0.0767833
11564,-0.906034,0.824943
11565,0.205454,0.0431884
11566,0.187375,0.0365159
11567,-0.202106,0.0430422
11568,-0.298561,0.0917205
11569,0.0245846,0.00293292
11570,-1.38525,1.92909
11571,0.223348,0.0530301
11572,0.057137,0.00398008
11573,-0.240407,0.0596353
11574,0.220353,0.0514527
11575,0.142831,0.0226202
11576,-1.33076,1.77641
11577,-0.612645,0.378662
11578,-0.904449,0.821314
11579,-1.15823,1.34496
11580,-0.692809,0.483729
11581,-0.333541,0.112378
11582,-0.0304083,0.00286173
11583,-0.817197,0.669439
11584,-0.121196,0.198139
11585,-0.172178,0.0614048
11586,0.27907,0.17394
11587,0.29979,0.0925239
11588,0.221951,0.0757974
11589,0.44457,0.200355
11590,-0.266852,0.0727
11591,-0.188662,0.0371735
11592,-0.382517,0.149703
11593,-0.357574,0.131486
11594,0.31486,0.100759
11595,0.301745,0.0936913
11596,0.281943,0.0816753
11597,0.0124305,0.00128992
11598,-0.144956,0.0230067
11599,-0.748485,0.564235
11600,-0.322776,0.106454
11601,0.186596,0.0359392
11602,-0.15627,0.0255835
11603,-0.413627,0.173376
11604,-0.999545,1.00258
11605,-0.709845,0.508727
11606,-1.31506,1.73719
11607,0.247819,0.0625743
11608,-0.435394,0.19585
11609,-1.4305,2.05796
11610,-1.55443,2.41905
11611,-0.84794,0.724747
11612,-0.173766,0.0332109
11613,0.0790799,0.0920906
11614,-0.119961,0.0539357
11615,-0.769355,0.631453
11616,-0.206062,0.0461378
11617,0.234791,0.0562589
11618,0.0305571,0.002087
11619,-1.237,1.53472
11620,-0.912664,0.836864
11621,-1.19052,1.45687
11622,-0.242024,0.0659489
11623,0.0710959,0.0106406
11624,-0.260518,0.068866
11625,-0.542533,0.304501
11626,-0.982866,0.972211
11627,-1.12327,1.26826
11628,0.172352,0.0338121
11629,-0.131344,0.200702
11630,-0.0424457,0.00910792
11631,0.0468121,0.00273075
11632,0.122111,0.0587553
11633,0.408885,0.171401
11634,-0.244237,0.0693234
11635,0.207558,0.0515355
11636,-0.220902,0.0692714
11637,-0.000377615,0.0138124
11638,0.15469,0.0307415
11639,0.0972315,0.0176513
11640,0.47528,0.230387
11641,0.147195,0.0271387
11642,0.223421,0.0962812
11643,0.732108,0.537655
11644,0.195511,0.0687808
11645,-0.728892,0.534393
11646,0.128063,0.0540969
11647,-0.746412,0.572524
11648,-0.616235,0.457327
11649,-0.303392,0.201093
11650,-0.179139,0.0330962
11651,0.42938,0.185083
11652,-0.666238,0.44983
11653,-1.20561,1.48294
11654,0.783932,0.685323
11655,0.348326,0.457864
11656,-0.28788,2.1158
11657,-0.881291,0.872733
11658,-0.00586315,0.0395794
11659,0.471502,0.226094
11660,0.686643,0.474934
11661,0.344505,0.127707
11662,0.0118289,0.0242917
11663,0.563664,0.322535
11664,-0.362108,0.227182
11665,0.621911,0.390819
11666,-0.0407915,0.0792448
11667,0.25842,0.0816088
11668,0.144033,0.0623292
11669,0.367393,0.14126
11670,-0.770087,1.1705
11671,-0.491725,0.819265
11672,-0.118275,0.0790535
11673,-0.28788,2.1158
11674,-0.770087,1.1705
11675,-1.48838,2.79275
11676,-0.137017,0.0963546
11677,-0.28788,2.1158
11678,-0.321492,0.174131
11679,-0.28788,2.1158
11680,-0.219676,0.285716
11681,-0.28788,2.1158
11682,-0.28788,2.1158
11683,-0.958658,1.4965
11684,0.247097,0.098754
11685,-0.28788,2.1158
11686,-0.28788,2.1158
11687,-0.28788,2.1158
11688,0.0660482,0.00669762
11689,-0.105155,0.0145135
11690,-1.35267,1.97919
11691,-1.37626,1.99015
11692,-0.551781,0.881933
11693,-0.0193772,0.00436067
11694,0.159407,0.0435783
11695,0.198211,0.0497092
11696,0.139389,0.0277108
11697,0.00951194,0.00347387
11698,-0.636829,0.411785
11699,-1.16137,1.47488
11700,0.189482,0.0369253
11701,-1.41306,2.10579
11702,-0.099198,0.0114083
11703,-0.617707,0.437587
11704,-0.373498,0.141708
11705,0.480908,0.232154
11706,-0.294194,0.0899192
11707,-0.266624,0.0840152
11708,-0.308306,0.431586
11709,-0.393935,0.159512
11710,-0.999954,1.00174
11711,-0.576774,0.910139
11712,-0.792689,0.638515
11713,-1.30862,1.74554
11714,-0.504785,0.301172
11715,-0.789056,0.959142
11716,-0.777851,0.609057
11717,-0.601712,0.378386
11718,-0.225659,0.0559195
11719,-0.370865,0.140012
11720,-0.40493,0.168567
11721,-0.776958,0.613335
11722,-1.47548,2.18672
11723,-0.672589,0.456503
11724,-0.439733,0.204207
11725,0.291793,0.085903
11726,-0.756777,0.576421
11727,-0.28788,2.1158
11728,-0.161291,0.0365727
11729,-0.0411473,0.00886938
11730,-0.085539,0.00860254
11731,-0.28788,2.1158
11732,-0.27377,0.0862473
11733,0.0468812,0.0136556
11734,-0.494697,0.822196
11735,-0.0149926,0.00122502
11736,-0.881083,0.77987
11737,-0.101683,0.0167717
11738,-0.116738,0.0844014
11739,-0.0944088,0.0114623
11740,-0.540331,0.305094
11741,0.157523,0.0433998
11742,0.303272,0.106802
11743,-0.982581,0.984051
11744,-0.119833,0.0172366
11745,0.136407,0.0196949
11746,0.385008,0.149056
11747,-0.268501,0.0787371
11748,0.104348,0.0114359
11749,-0.867983,0.792939
11750,-0.307634,0.126398
11751,-0.0765532,0.00711015
11752,0.28442,0.0917366
11753,-1.2826,1.65065
11754,-0.446613,0.201733
11755,-1.65573,2.79383
11756,-0.0103916,0.183559
11757,0.574408,0.33117
11758,0.00403789,0.00218808
11759,0.21883,0.0486291
11760,0.250943,0.0654514
11761,0.0100247,0.109147
11762,0.08156,0.0384116
11763,-1.16984,1.37746
11764,-0.923951,0.874692
11765,-1.16021,1.92355
11766,0.602551,0.6996
11767,0.243883,0.0654805
11768,-0.0980904,0.0113364
11769,0.284753,0.0835183
11770,0.525918,0.278354
11771,-0.415577,0.18043
11772,-1.30199,1.70064
11773,-0.682928,0.469803
11774,-0.830596,0.785949
11775,0.13766,0.0214679
11776,-0.28788,2.1158
11777,-0.350138,0.1269
11778,0.172626,0.030496
11779,-0.677438,0.4617
11780,0.291998,0.10805
11781,0.741843,0.551032
11782,-0.573587,0.335757
11783,-0.412614,0.235315
11784,-0.691219,0.485818
11785,-0.862694,0.748893
11786,0.685234,0.470806
11787,0.533448,0.293296
11788,-0.292206,0.0898808
11789,-0.15078,0.118794
11790,0.229908,0.0542521
11791,-0.437992,0.193925
11792,-0.790392,0.626638
11793,0.475107,0.226586
11794,-0.289364,0.0901127
11795,-1.3583,1.84772
11796,-0.666043,0.473054
11797,-0.378836,0.145859
11798,-0.270104,0.0911239
11799,0.34539,0.190068
11800,-1.30999,2.0526
11801,0.00273632,0.00401247
11802,-0.129378,0.0353252
11803,-0.235166,0.057988
11804,0.192681,0.045581
11805,-0.0214468,0.00310976
11806,0.0817268,0.0114977
11807,-0.824687,0.721692
11808,0.620825,0.392664
11809,0.307714,0.0956502
11810,0.0442077,0.00277038
11811,-0.772238,0.602056
11812,0.263467,0.0698883
11813,-0.563357,0.325738
11814,0.70412,0.49953
11815,0.226882,0.234926
11816,0.334349,0.112936
11817,0.627097,0.400121
11818,-0.426516,0.187008
11819,-0.693816,0.496486
11820,-0.213146,0.0481072
11821,-0.717001,0.520735
11822,-0.754251,0.574808
11823,0.165051,0.0283083
11824,-0.757619,0.576594
11825,-1.83275,3.37279
11826,-0.554311,0.30822
11827,-0.0236508,0.00622374
11828,-0.0624698,0.00524814
11829,-0.692706,0.483225
11830,-1.09368,1.20039
11831,-0.572239,0.330757
11832,-0.661997,0.440168
11833,-0.324994,0.1081
11834,-0.61538,0.383091
11835,-0.591283,0.351567
11836,-1.26974,1.61582
11837,-1.57635,2.48899
11838,-1.64634,2.71507
11839,-1.8039,3.25942
11840,-1.92532,3.71226
11841,-0.176742,0.0327788
11842,-0.944679,0.897928
11843,-1.46241,2.15222
11844,-0.782536,0.616073
11845,-0.0530022,0.0551962
11846,-0.87714,0.772426
11847,0.187256,0.0375062
11848,0.234935,0.0562766
11849,-1.42065,2.02217
11850,-0.262964,0.0701489
11851,-0.0673863,0.00593304
11852,0.161163,0.0266344
11853,0.524151,0.275075
11854,-0.194595,0.0723418
11855,0.375748,0.143307
11856,-0.929769,0.86808
11857,-0.58661,0.362698
11858,0.224857,0.0531424
11859,-0.879244,0.775079
11860,-0.1289,0.0186448
11861,-1.30034,1.69356
11862,-0.430363,0.18641
11863,0.103086,0.0112263
11864,-0.0226378,0.00131393
11865,-1.00139,1.00588
11866,-0.465208,0.21823
11867,-0.757949,0.576497
11868,-1.0814,1.17158
11869,-1.50366,2.26394
11870,-0.399871,0.161716
11871,-0.156034,0.0264725
11872,-0.620996,0.438024
11873,-0.427804,0.185292
11874,-0.509222,0.270149
11875,-0.377545,0.149846
11876,-0.216455,0.0584757
11877,-0.136367,0.0202307
11878,-0.937229,0.880089
11879,-1.45833,2.12953
11880,-0.0498017,0.00404519
11881,-0.357017,0.128423
11882,0.139034,0.0331426
11883,-0.564334,0.347914
11884,-0.0760943,0.00679431
11885,-0.791315,0.62775
11886,-0.729996,0.537365
11887,-0.421445,0.183202
11888,-0.62094,0.387267
11889,-0.547848,0.305647
11890,-0.137933,0.0203425
11891,0.0633862,0.0173727
11892,-0.493996,0.252147
11893,-0.12579,0.0224132
11894,0.0995556,0.0193565
11895,0.395454,0.733854
11896,0.0278411,0.00484067
11897,-0.0168788,0.0173027
11898,-0.428627,0.214277
11899,0.198277,0.0443425
11900,0.0511909,0.00900192
11901,0.129923,0.166338
11902,-0.781879,0.622176
11903,-0.859663,0.751744
11904,-0.558791,0.315275
11905,-1.20005,1.44438
11906,-1.80799,3.29374
11907,-1.46286,2.14183
11908,-0.974959,0.957659
11909,-1.72866,3.02983
11910,-0.342179,0.121659
11911,-0.152724,0.0250037
11912,-0.114384,0.0138365
11913,-1.2367,1.53227
11914,-0.156976,0.027751
11915,-1.01089,1.02807
11916,-0.477473,0.231241
11917,-1.2187,1.49217
11918,-1.51278,2.30143
11919,-1.687,2.8608
11920,-0.0338136,0.00284003
11921,-0.915235,0.933714
11922,-1.40511,1.99336
11923,-0.0681471,0.0648518
11924,0.408773,0.169582
11925,-0.772205,0.598454
11926,-0.244626,0.0614348
11927,-0.146962,0.0224818
11928,-0.99741,0.996773
11929,-0.584087,0.349794
11930,-1.07723,1.16461
11931,-0.0449364,0.00436813
11932,-0.233979,0.0604912
11933,-0.225068,0.0533407
11934,-1.32846,1.78382
11935,-0.531447,0.283852
11936,-1.18594,1.42462
11937,0.584943,0.678692
11938,0.219054,0.0707717
11939,0.0126354,0.026695
11940,-0.493578,0.275379
11941,-0.955354,1.49017
11942,-0.536584,0.289888
11943,-1.62307,2.7202
11944,-0.683371,0.576042
11945,0.281095,0.0884598
11946,-0.28788,2.1158
11947,-0.147702,0.0228589
11948,-0.844039,0.719392
11949,-0.581487,0.343914
11950,0.478574,0.257437
11951,0.599406,0.388729
11952,0.0955601,0.0173291
11953,-0.257233,0.068407
11954,-0.959778,0.925907
11955,-1.35476,1.84192
11956,0.015448,0.0156325
11957,-0.920936,0.854879
11958,0.526776,0.278864
11959,0.161759,0.0270907
11960,1.17546,1.46755
11961,-0.657472,0.436716
11962,-0.679611,0.464833
11963,-0.375176,0.145693
11964,-0.611903,0.389253
11965,-0.28788,2.1158
11966,-0.704703,0.54045
11967,-0.193769,0.275005
11968,0.292644,0.0954296
11969,0.468258,0.26085
11970,-0.703215,0.497153
11971,-1.59391,2.54748
11972,-1.7292,3.00551
11973,-1.79829,3.2516
11974,-0.577329,0.336259
11975,-0.0815674,0.00939304
11976,-0.365942,0.142281
11977,-0.433213,0.192169
11978,-0.892618,0.806324
11979,-1.21123,1.47723
11980,-1.08273,1.19133
11981,-0.603002,0.366639
11982,-1.25258,1.57423
11983,-1.14792,1.32386
11984,-0.121062,0.0159235
11985,-0.0643299,0.00542601
11986,0.195073,0.0387475
11987,-0.620824,0.38763
11988,-0.799827,0.642305
11989,-0.709872,0.506169
11990,-0.508682,0.260498
11991,-1.05927,1.16841
11992,-0.774003,0.605837
11993,-1.58193,2.52408
11994,-1.64055,2.71485
11995,0.0578064,0.1528
11996,-0.154238,0.025098
11997,-0.467991,0.224173
11998,-0.339434,0.116657
11999,0.249862,0.0637209
12000,0.208579,0.380038
12001,-0.675149,0.49967
12002,-0.521526,0.337054
12003,-0.589508,0.352281
12004,-0.28788,2.1158
12005,-1.4439,2.09249
12006,-1.2998,1.69408
12007,-0.0541152,0.00732652
12008,-0.268479,0.0763397
12009,-1.39158,1.95806
12010,-0.237383,0.0600272
12011,-0.342645,0.123319
12012,-1.85259,3.43699
12013,-0.620775,0.962832
12014,0.179229,0.181581
12015,-0.858178,0.739896
12016,-1.27618,1.65809
12017,-0.373824,0.144451
12018,-0.463917,0.221357
12019,0.403249,0.248446
12020,-0.650715,1.0009
12021,-0.28788,2.1158
12022,0.290994,0.0868434
12023,-1.09704,1.22345
12024,-0.32982,0.111449
12025,-1.40199,1.96935
12026,0.12008,0.100256
12027,0.0362248,0.00918934
12028,0.664315,0.441625
12029,-0.186691,0.0360051
12030,-0.249995,0.0791635
12031,-0.943569,0.894368
12032,0.232152,0.0595991
12033,-0.569028,0.561251
12034,-0.141011,0.0482883
12035,0.00114214,0.183452
12036,0.274025,0.102528
12037,0.292722,0.0868011
12038,-0.400422,0.161629
12039,-0.540589,0.304384
12040,0.017976,0.00374965
12041,-0.239701,0.634927
12042,0.133844,0.0345805
12043,-0.583021,0.371673
12044,-0.504698,0.262598
12045,-0.28788,2.1158
12046,-0.640556,0.422837
12047,-0.452649,0.221558
12048,-0.40411,0.499838
12049,-0.130303,0.59445
12050,0.258964,0.0898492
12051,0.342252,0.130063
12052,-0.28788,2.1158
12053,0.102416,0.0162753
12054,-0.908206,0.837363
12055,-0.452942,0.206669
12056,0.395519,0.156965
12057,-0.311381,0.0989237
12058,-0.28788,2.1158
12059,-0.94137,1.01227
12060,-0.28788,2.1158
12061,-0.28788,2.1158
12062,-0.515698,0.266982
12063,-0.923026,0.855866
12064,0.394491,0.167416
12065,-0.687986,0.622783
12066,0.648667,0.432737
12067,0.322612,0.123563
12068,0.313678,0.103904
12069,0.521225,0.277589
12070,-0.454867,0.20977
12071,-1.63643,2.69606
12072,-0.593138,0.356072
12073,-0.785461,0.618241
12074,-0.326419,0.10735
12075,0.354729,0.143218
12076,-0.548936,0.878801
12077,0.0982472,0.0318135
12078,0.178074,0.043333
12079,-0.27995,0.0803135
12080,-0.243525,0.242755
12081,0.583827,0.348731
12082,-0.47511,0.237878
12083,-0.00490851,0.0228112
12084,0.0983366,0.0656959
12085,-0.320774,0.103255
12086,-0.855639,0.737705
12087,-0.105296,0.0305716
12088,-1.0621,1.27751
12089,0.0904438,0.0789537
12090,0.000389496,0.00496694
12091,-0.268326,0.0806349
12092,-0.533086,0.309871
12093,-0.842393,0.769834
12094,-0.644758,0.439865
12095,-0.598814,0.380739
12096,-0.308495,0.100106
12097,-0.0333934,0.00177496
12098,-0.396973,0.15854
12099,-1.22513,1.50252
12100,-1.64705,2.71521
12101,0.272529,0.0776555
12102,-0.169179,0.0364987
12103,-0.439771,0.213872
12104,-0.367439,0.150405
12105,0.421983,0.180054
12106,-0.169694,0.0411299
12107,-0.499713,0.273865
12108,-0.334413,0.121621
12109,-0.37233,0.154323
12110,-0.566787,0.340272
12111,0.137936,0.0250278
12112,-1.74989,3.07915
12113,-0.703002,0.507139
12114,-0.183002,0.0341438
12115,-0.654035,0.498535
12116,-0.320027,0.119802
12117,0.265574,0.0764867
12118,-0.205953,0.0509615
12119,0.34769,0.122315
12120,-0.466746,0.232958
12121,0.349913,0.123722
12122,-0.190027,0.0474076
12123,-0.296509,0.116322
12124,-0.874428,0.778437
12125,-1.00929,1.02162
12126,0.131452,0.0247899
12127,0.423576,0.183076
12128,-0.0352041,0.0022729
12129,-0.322676,0.106181
12130,0.534351,0.394577
12131,-0.673234,0.483801
12132,-0.119886,0.0919535
12133,-0.501381,0.25441
12134,0.44296,0.199714
12135,-0.471364,0.253944
12136,-1.00133,1.15212
12137,-0.28788,2.1158
12138,0.0684939,0.0232778
12139,0.456737,0.217733
12140,-0.297071,0.0888134
12141,-0.28788,2.1158
12142,-0.628998,0.57909
12143,0.387614,0.151627
12144,-0.0389679,0.00334172
12145,-0.527275,0.279185
12146,-0.319846,0.121786
12147,0.118445,0.0160953
12148,-0.379067,0.183237
12149,0.641564,0.412356
12150,0.260329,0.0713657
12151,-0.611652,0.375137
12152,-0.776848,0.674267
12153,0.145869,0.031187
12154,0.155874,0.0409631
12155,-0.28788,2.1158
12156,-0.53906,0.291175
12157,0.0360707,0.00193651
12158,-1.48778,2.21439
12159,-0.371248,0.139865
12160,-0.529176,0.857498
12161,-0.403546,0.182334
12162,-0.420465,0.285837
12163,-0.00537676,0.000609442
12164,-0.0580743,0.00464405
12165,0.279214,0.0949781
12166,-0.411455,0.172766
12167,-0.5244,0.275647
12168,-0.0723233,0.0301279
12169,-0.299546,0.090581
12170,-1.05913,1.12367
12171,-0.197328,0.0481676
12172,-1.19712,1.46912
12173,0.316785,0.100723
12174,-0.686953,0.473331
12175,-0.324277,0.107259
12176,-1.18208,1.39901
12177,-1.47629,2.18161
12178,0.201458,0.0500305
12179,-0.774572,0.60131
12180,-0.637054,0.406784
12181,-0.706212,0.499976
12182,0.229783,0.0612552
12183,0.541393,0.299292
12184,-0.0149142,0.0251197
12185,0.535859,0.289036
12186,0.274648,0.0794366
12187,-0.0510596,0.00736863
12188,0.629662,0.400779
12189,0.362926,0.137151
12190,-1.1677,1.37952
12191,-0.15204,0.0248455
12192,-0.728299,0.532175
12193,-0.0595926,0.00712981
12194,-0.921641,0.883896
12195,-0.0906282,0.0183724
12196,0.29349,0.0879271
12197,-1.07156,1.1946
12198,-0.611731,0.387352
12199,-0.732471,1.11398
12200,-0.0092397,0.0331467
12201,0.1398,0.0405509
12202,0.41496,0.175708
12203,-0.162481,0.0272613
12204,-0.188327,0.0377301
12205,-1.53009,2.34704
12206,-0.317362,0.109948
12207,0.182107,0.0359891
12208,-0.628975,0.410437
12209,-0.534882,0.29045
12210,-0.0253295,0.0146945
12211,-1.51293,2.35402
12212,-0.668223,0.472212
12213,-0.628598,0.420033
12214,0.153322,0.029465
12215,-0.595224,0.379982
12216,-0.129926,0.0187549
12217,-0.0362013,0.110357
12218,0.467443,0.219699
12219,0.806462,0.650709
12220,0.00912773,0.000823716
12221,0.0292407,0.00373162
12222,-0.459443,0.320134
12223,-0.13633,0.0427376
12224,-0.410211,0.200033
12225,-0.316447,0.160346
12226,-0.267788,0.0821319
12227,-0.246733,0.0617393
12228,-0.540867,0.297243
12229,-0.563019,0.320264
12230,-0.45777,0.265579
12231,-0.0516559,0.0144611
12232,-0.312096,0.15343
12233,0.33065,0.169537
12234,-1.40669,2.12825
12235,-1.04847,1.12674
12236,0.0771579,0.00828859
12237,-0.314078,0.108434
12238,-0.478178,0.241377
12239,-0.133244,0.0252644
12240,-0.778497,0.683638
12241,-0.387586,0.162946
12242,-0.588155,0.377686
12243,-1.1307,1.28963
12244,-0.646557,0.423003
12245,0.588603,0.348241
12246,-0.658454,0.438439
12247,-0.872959,0.775194
12248,0.422417,0.178902
12249,-0.607707,0.370752
12250,-0.771036,0.597535
12251,-0.696147,0.486714
12252,0.219575,0.0496814
12253,-0.574982,0.333959
12254,0.273908,0.0755667
12255,-1.57858,2.49696
12256,-1.85924,3.46488
12257,-0.541471,0.329205
12258,-0.069184,0.0136116
12259,-0.450186,0.2053
12260,-0.352133,0.126327
12261,0.708649,0.50278
12262,-0.731323,0.536633
12263,-0.921006,0.852296
12264,-1.79698,3.23798
12265,-1.13987,1.30145
12266,-0.9098,0.867281
12267,0.345431,0.138807
12268,0.245321,0.396715
12269,-0.435348,0.206913
12270,-0.12546,0.0431783
12271,-1.14515,1.40744
12272,-1.04799,1.10126
12273,-1.68926,2.85904
12274,-1.77697,3.16405
12275,-1.96368,3.86987
12276,0.534172,0.287865
12277,0.138229,0.0342129
12278,-0.784468,0.852849
12279,-0.602607,0.366198
12280,-0.784716,0.79923
12281,0.326088,0.162359
12282,-0.465641,0.400272
12283,-0.478192,0.229743
12284,-1.05878,1.12347
12285,-1.5091,2.28402
12286,-0.555168,0.313336
12287,0.32896,0.178988
12288,-0.505265,0.351352
12289,-0.28788,2.1158
12290,0.051748,0.128771
12291,-0.132064,0.0612849
12292,-1.08225,1.18557
12293,-0.226608,0.0562876
12294,-0.198138,0.0769556
12295,-0.28788,2.1158
12296,0.672192,0.529423
12297,-0.668162,0.448364
12298,0.081496,0.0082965
12299,-0.0205721,0.019448
12300,0.375609,0.175556
12301,-0.329981,0.118559
12302,-1.86397,4.05185
12303,-0.16787,0.0330279
12304,0.430894,0.209821
12305,0.412505,0.189645
12306,-0.573676,0.355639
12307,-0.606646,0.477065
12308,-1.05638,1.12199
12309,0.292227,0.0903028
12310,-0.739463,0.57521
12311,-1.19431,1.49715
12312,-1.25793,1.65996
12313,-0.806355,0.659132
12314,0.164138,0.0289607
12315,0.755579,0.571136
12316,0.569305,0.327478
12317,-0.432231,0.193106
12318,-0.498622,0.2509
12319,-0.879451,0.782456
12320,0.333998,0.11311
12321,-0.627216,0.421805
12322,-0.362726,0.171115
12323,0.142964,0.0244838
12324,-0.244316,0.0623228
12325,-1.28154,1.65508
12326,0.011918,0.2376
12327,0.0812318,0.0107693
12328,0.401025,0.161927
12329,0.267566,0.0726779
12330,-0.694993,0.519029
12331,-0.151389,0.0348866
12332,-0.425483,0.183803
12333,-1.0347,1.0892
12334,-0.443379,0.2004
12335,-1.23355,1.54509
12336,-0.0729908,0.010234
12337,-0.0903028,0.0192958
12338,-0.528161,0.279979
12339,-0.800192,0.647119
12340,0.055454,0.00598285
12341,-0.915106,0.856444
12342,-0.168603,0.0415643
12343,-1.06695,1.16254
12344,-0.599616,0.54299
12345,-0.847627,0.725228
12346,-0.162651,0.0292619
12347,0.294061,0.0872618
12348,0.00962765,0.00444331
12349,-0.911087,0.895143
12350,-0.621587,0.405396
12351,-0.751937,0.590306
12352,-0.300348,0.426742
12353,-0.196496,0.067015
12354,-0.0136586,0.0397316
12355,-0.628773,0.403232
12356,0.0221451,0.00736104
12357,-0.852828,0.732313
12358,-0.448616,0.203698
12359,-1.09816,1.21086
12360,-1.51732,2.31045
12361,0.181948,0.0794694
12362,1.17607,1.39476
12363,-1.2348,1.52795
12364,-1.15205,1.33099
12365,0.430428,0.186217
12366,-0.00274188,0.577478
12367,-0.28788,2.1158
12368,-0.123713,0.124351
12369,0.0476036,0.00396635
12370,-0.368249,0.181971
12371,-1.06797,1.21133
12372,0.0944642,0.00986975
12373,0.0882833,0.00819796
12374,0.498753,0.250354
12375,0.530859,0.282358
12376,0.298711,0.0912891
12377,0.594405,0.361351
12378,0.362226,0.133749
12379,0.208335,0.0467448
12380,-0.0214629,0.046825
12381,0.398179,0.164593
12382,0.604285,0.379213
12383,-0.170022,0.0307185
12384,0.500242,0.258357
12385,-0.121016,0.0250664
12386,-0.0211548,0.00419219
12387,0.669842,0.598147
12388,0.602763,0.440905
12389,0.290158,0.0910044
12390,0.142655,0.106187
12391,-0.574964,0.480041
12392,0.564719,0.324455
12393,0.495655,0.250672
12394,0.719361,0.525206
12395,0.175304,0.0564218
12396,0.0357049,0.0166687
12397,0.497099,0.254618
12398,-0.118337,0.0168803
12399,-0.518134,0.270689
12400,0.145184,0.0261071
12401,0.445544,0.199649
12402,-0.840534,0.734902
12403,0.229994,0.0556651
12404,0.431041,0.186695
12405,0.349413,0.123135
12406,0.33043,0.110432
12407,-1.20529,1.45506
12408,0.450174,0.204201
12409,0.132454,0.0218714
12410,-1.21794,1.48574
12411,-0.28788,2.1158
12412,-1.51252,2.47116
12413,-0.37235,0.144349
12414,-0.28788,2.1158
12415,-0.28788,2.1158
12416,0.430533,0.185915
12417,-0.690254,0.659901
12418,-0.797913,0.639542
12419,0.0264885,0.0782825
12420,0.020566,0.0467873
12421,0.0427435,0.0668916
12422,-1.71681,2.95857
12423,0.515821,0.26795
12424,0.260499,0.0741912
12425,0.142705,0.0211631
12426,0.280229,0.0873534
12427,0.334258,0.119926
12428,0.233818,0.057212
12429,0.335767,0.125073
12430,0.473652,0.226098
12431,-1.8632,3.48349
12432,-0.478494,0.236197
12433,-0.452481,0.206186
12434,-0.537872,0.307074
12435,-0.80662,0.658436
12436,-1.04746,1.11874
12437,-0.28788,2.1158
12438,0.217366,0.0996348
12439,-1.45846,2.1481
12440,0.441608,0.204927
12441,-0.130416,0.102845
12442,-0.0971097,0.0100864
12443,-1.11937,1.25461
12444,0.12385,0.0157871
12445,0.165292,0.0347624
12446,-0.132653,0.019493
12447,-0.410937,0.170962
12448,-0.0358853,0.00319731
12449,-1.09753,1.23027
12450,0.118323,0.0159949
12451,0.0922078,0.0860831
12452,-1.21395,1.47605
12453,-0.411999,0.17579
12454,0.536732,0.288441
12455,-0.104181,0.0710616
12456,0.742098,0.73416
12457,0.507845,0.260242
12458,-1.6463,2.8364
12459,0.218734,0.0706315
12460,-0.175331,0.1268
12461,-1.09024,1.19181
12462,-0.290658,0.0857415
12463,0.543993,0.29684
12464,0.384684,0.150712
12465,0.121893,0.0305514
12466,-0.28788,2.1158
12467,0.10873,0.0346094
12468,0.117993,0.0193213
12469,0.00942383,0.0776697
12470,-0.608404,0.382489
12471,-0.497996,0.264329
12472,-0.227753,0.0574576
12473,-0.439508,0.194971
12474,-1.06177,1.13508
12475,-0.18951,0.0391611
12476,0.266326,0.0728668
12477,-0.0378019,0.00296712
12478,-0.8865,0.808044
12479,0.800212,0.644247
12480,-0.28788,2.1158
12481,-1.14108,1.30706
12482,-0.183071,0.0895408
12483,-1.52166,2.41149
12484,-1.97497,4.00954
12485,0.150368,0.0283969
12486,-0.250508,0.0669907
12487,0.80671,0.654526
12488,-1.41746,2.0243
12489,-0.0182146,0.00392625
12490,-0.425018,0.181537
12491,0.125693,0.0181475
12492,0.594623,0.355491
12493,-0.221747,0.0537969
12494,0.535084,0.287679
12495,0.727346,0.539874
12496,0.272006,0.0749484
12497,-0.226808,0.0539993
12498,-1.78317,3.19067
12499,-1.88884,3.58006
12500,-1.7239,2.99181
12501,0.30438,0.09403
12502,-0.329566,0.115426
12503,0.028482,0.0102564
12504,0.019144,0.0442106
12505,-1.02611,1.06421
12506,-0.23008,0.0745053
12507,-0.273045,0.123746
12508,-0.503214,0.258222
12509,0.0655257,0.00510886
12510,-0.537821,0.291614
12511,-1.59863,2.56155
12512,-0.243923,0.0692876
12513,0.0566051,0.129298
12514,0.00329596,0.336544
12515,-1.14042,1.36563
12516,-0.28788,2.1158
12517,0.30281,0.0931387
12518,0.208969,0.0465968
12519,0.424075,0.182129
12520,-0.782513,0.618112
12521,-1.15926,1.35724
12522,0.330444,0.686664
12523,0.134037,0.0221151
12524,0.243909,0.0617739
12525,0.340453,0.118035
12526,0.274466,0.0898918
12527,-0.153765,0.0249628
12528,0.258199,0.0691305
12529,0.211167,0.0454127
12530,-0.424248,0.204138
12531,0.283897,0.0842242
12532,0.556557,0.321379
12533,0.166349,0.036308
12534,0.615605,0.388094
12535,0.113542,0.0180822
12536,0.313862,0.104057
12537,-0.28788,2.1158
12538,-0.0450475,0.00278565
12539,-0.304226,0.0934885
12540,0.423849,0.181693
12541,-0.22599,0.387605
12542,-0.448365,0.537564
12543,0.0301787,0.0108201
12544,-0.0889139,0.00946764
12545,0.492911,0.245224
12546,0.758089,0.577895
12547,0.5364,0.292272
12548,0.730631,0.539526
12549,0.729607,0.571871
12550,0.0709936,0.00891054
12551,0.228784,0.060297
12552,0.607529,0.370638
12553,0.455025,0.215684
12554,0.415486,0.176536
12555,0.291752,0.0865899
12556,-0.30153,0.0938708
12557,0.167988,0.0295139
12558,0.0484421,0.00335186
12559,0.0983771,0.0129784
12560,-0.405223,0.175998
12561,0.312082,0.0984489
12562,0.244952,0.061187
12563,-0.152183,0.0549192
12564,-0.23831,0.0577192
12565,0.0898272,0.0089221
12566,-0.275396,0.088368
12567,-0.0289805,0.0249916
12568,0.0909426,0.0120503
12569,-0.208763,0.05504
12570,-1.02356,1.04911
12571,0.622145,0.387573
12572,-0.363671,0.139563
12573,-0.906468,0.892457
12574,-0.12295,0.026106
12575,-0.00237756,0.0121537
12576,-0.808252,0.890729
12577,-0.547829,0.306302
12578,0.252643,0.107672
12579,-0.046535,0.0296036
12580,-0.981309,1.20043
12581,-0.239597,0.0808564
12582,-0.0179504,0.00434718
12583,0.408358,0.404214
12584,-0.337755,0.128381
12585,-0.0641377,0.019807
12586,0.140817,0.0226263
12587,-1.02105,1.04935
12588,-0.22201,0.385822
12589,0.112015,0.033554
12590,0.291011,0.103712
12591,0.690298,0.481387
12592,0.359224,0.13317
12593,0.117293,0.251216
12594,0.0332617,0.0502984
12595,-0.236533,0.068096
12596,-0.417263,0.220473
12597,0.188126,0.121228
12598,-0.333569,0.124195
12599,-0.0235969,0.00674248
12600,0.17855,0.0560319
12601,-0.416585,0.189872
12602,-0.19542,0.0412986
12603,-0.912673,0.835587
12604,0.475172,0.226448
12605,0.369152,0.137407
12606,-1.12826,1.35881
12607,-0.0451262,0.0153912
12608,-1.28898,2.23895
12609,0.364326,0.13501
12610,0.0301708,0.00403179
12611,-0.219292,0.144149
12612,-0.333441,0.113602
12613,-0.798501,0.639707
12614,-0.503445,0.255007
12615,0.0113765,0.0182972
12616,0.18876,0.0374094
12617,0.246912,0.0616897
12618,-0.139233,0.0609697
12619,-0.962211,0.963547
12620,0.000539372,0.00265009
12621,-0.0984613,0.587165
12622,-0.805067,0.66127
12623,-2.22294,5.06758
12624,0.0335555,0.00597336
12625,0.243399,0.0609046
12626,0.0105149,0.00329367
12627,-0.28788,2.1158
12628,0.411482,0.201077
12629,0.764291,1.16161
12630,-0.45095,0.205025
12631,-0.0758371,0.00667372
12632,0.203706,0.041963
12633,0.00132683,0.000607583
12634,-1.02412,1.05361
12635,0.324672,0.106995
12636,-0.117683,0.0174278
12637,-1.27674,1.64152
12638,0.121567,0.0197149
12639,0.199863,0.0464294
12640,-0.0107909,0.017884
12641,-0.459158,0.360285
12642,-0.15392,0.0257159
12643,-0.0861496,0.00929147
12644,-0.38316,0.38427
12645,0.291699,0.0999162
12646,0.0400909,0.00429236
12647,-1.34103,1.80337
12648,-0.28788,2.1158
12649,0.448403,0.234127
12650,-0.28788,2.1158
12651,-0.321792,0.10721
12652,-0.28788,2.1158
12653,0.675684,0.458594
12654,-0.31715,0.103793
12655,0.550297,0.305305
12656,-0.267899,0.0829109
12657,0.370873,0.142225
12658,0.330094,0.111206
12659,-0.420224,0.754059
12660,0.151923,0.0247023
12661,0.0889835,0.0118643
12662,-0.908328,1.00851
12663,-0.40907,0.173385
12664,-0.312998,0.247426
12665,-0.928856,0.865824
12666,-1.82315,3.90135
12667,0.282605,0.0807754
12668,-0.0716808,0.0172862
12669,-0.613688,0.713146
12670,0.0608248,0.0071704
12671,-0.234779,0.0634028
12672,-0.192257,0.107736
12673,-0.427888,0.420547
12674,-0.143245,0.0293442
12675,-0.366601,0.159294
12676,-0.299218,0.0913342
12677,-0.494697,0.822196
12678,-0.135193,0.0457151
12679,0.585341,0.36916
12680,-0.0783089,0.0335703
12681,0.534785,0.296417
12682,-0.970135,0.947753
12683,-0.28788,2.1158
12684,-0.28788,2.1158
12685,-1.3673,2.20604
12686,0.133367,0.595258
12687,0.175748,0.0411761
12688,-0.28788,2.1158
12689,0.415434,0.322043
12690,1.09393,1.53321
12691,-0.28788,2.1158
12692,-0.501899,0.2632
12693,-0.281637,0.415853
12694,-1.42542,2.6093
12695,-1.22668,1.50775
12696,-1.10995,1.25355
12697,-0.177986,0.0558309
12698,0.133717,0.0319332
12699,0.162842,0.263976
12700,-1.0272,1.05788
12701,0.0482094,0.004826
12702,0.923712,1.0027
12703,0.408059,0.168209
12704,-0.447649,0.2016
12705,-1.09816,1.20994
12706,-0.408576,0.169304
12707,-0.0764051,0.00803915
12708,-0.2004,0.0430785
12709,0.146117,0.0228025
12710,-0.00916968,0.000803998
12711,-0.690616,0.478812
12712,0.0949708,0.00975312
12713,0.11051,0.0129789
12714,-0.864006,0.747794
12715,-0.697219,0.488491
12716,-0.329328,0.110457
12717,0.0561655,0.00483357
12718,0.00802389,0.00194281
12719,-0.514354,0.269497
12720,-0.321907,0.104832
12721,-0.393898,0.15673
12722,0.57072,0.328185
12723,0.023953,0.00579788
12724,0.113831,0.0146261
12725,-1.8715,3.50702
12726,-0.476293,0.228544
12727,-0.28826,0.0871186
12728,0.341017,0.118748
12729,-0.349565,0.126902
12730,-0.82068,0.674913
12731,-0.372449,0.140558
12732,-0.0153408,0.00896497
12733,-0.87694,0.786408
12734,-0.0868412,0.585012
12735,-0.28788,2.1158
12736,-0.28788,2.1158
12737,-0.15188,0.600538
12738,0.454753,0.223129
12739,0.0742257,0.0830903
12740,0.237722,0.108899
12741,0.202694,0.0588523
12742,-0.812671,0.662339
12743,-1.31451,1.73452
12744,-0.76622,0.593326
12745,-0.709309,0.68657
12746,0.251489,0.0786408
12747,-0.181943,0.610574
12748,-1.39348,2.51926
12749,0.203897,0.167667
12750,-0.261137,0.217651
12751,-0.601651,0.698517
12752,0.313111,0.434571
12753,0.22618,0.055123
12754,-0.425529,0.758546
12755,-0.0540827,0.00429112
12756,-1.33853,1.79624
12757,-0.315985,0.101333
12758,-0.273106,0.0759257
12759,-0.0510379,0.0177105
12760,-0.177222,0.157501
12761,0.0943524,0.0232044
12762,-0.0934327,0.345263
12763,0.662372,0.471798
12764,0.757613,0.576949
12765,-0.292619,0.0883656
12766,0.129848,0.049922
12767,0.334921,0.125099
12768,0.306581,0.118144
12769,-1.21035,2.04242
12770,-1.17237,1.41399
12771,-0.143386,0.204011
12772,-1.23493,2.10253
12773,-0.887872,0.791104
12774,0.381855,0.147438
12775,0.0017744,0.0166693
12776,-0.559016,0.340904
12777,0.00854927,0.0178407
12778,-0.955354,1.49017
12779,-1.00799,1.19948
12780,0.57306,0.905869
12781,-0.812769,0.66483
12782,-1.14455,1.31502
12783,-0.662098,0.442845
12784,0.0479212,0.008298
12785,0.224157,0.0528121
12786,0.319409,0.131463
12787,0.179151,0.0395362
12788,-1.06721,1.16172
12789,-0.28788,2.1158
12790,-0.135341,0.0675091
12791,0.567891,0.324249
12792,-0.811121,0.722981
12793,-0.655489,0.766198
12794,-0.280724,0.415339
12795,0.940612,0.914191
12796,0.261537,0.0869881
12797,-0.691993,0.490151
12798,0.46114,0.217197
12799,0.337614,0.117594
12800,-1.04822,1.11874
12801,-0.849277,0.760816
12802,-0.407282,0.200353
12803,-0.699881,0.639291
12804,0.484486,0.238524
12805,-0.28788,2.1158
12806,-0.102487,0.0422632
12807,0.418408,0.18069
12808,-0.632425,0.452348
12809,-0.969303,1.17701
12810,0.242143,0.395166
12811,-0.977497,0.956518
12812,-0.630597,0.400356
12813,-0.28788,2.1158
12814,0.182699,0.0411799
12815,0.136692,0.0204917
12816,0.53103,0.283543
12817,0.359813,0.130832
12818,0.271107,0.0742355
12819,0.42849,0.184657
12820,0.487476,0.238448
12821,0.389271,0.156859
12822,0.591094,0.352679
12823,0.239854,0.0605692
12824,-0.147075,0.0402174
12825,0.195074,0.0507768
12826,-0.28788,2.1158
12827,-0.0912322,0.0176592
12828,0.131184,0.0338756
12829,0.0140832,0.0145004
12830,-1.01617,1.27005
12831,-0.869115,0.807748
12832,-0.18612,0.0469743
12833,-0.848017,1.2966
12834,0.216149,0.383254
12835,-0.162366,0.209814
12836,0.448214,0.20935
12837,-0.330758,0.346859
12838,-0.535666,0.623471
12839,2.06771,4.85291
12840,-0.28788,2.1158
12841,0.279718,0.0811604
12842,-0.919967,0.852044
12843,0.224642,0.0515302
12844,-0.752084,0.570283
12845,-0.83245,0.695676
12846,-0.877946,0.791797
12847,-1.62042,2.64991
12848,-1.26509,1.60882
12849,-1.53202,2.35222
12850,-1.49188,2.2414
12851,-0.804262,0.650671
12852,-0.624952,0.405126
12853,0.284018,0.0817498
12854,0.122145,0.0171699
12855,-0.0852969,0.00963819
12856,-0.40895,0.176469
12857,-1.01399,1.0556
12858,-1.35412,1.84076
12859,-0.238227,0.0912265
12860,-0.829431,0.712853
12861,-0.142661,0.0240286
12862,0.343187,0.123363
12863,0.174521,0.0381105
12864,-0.636245,0.642266
12865,0.262802,0.0696782
12866,-0.299875,0.0916805
12867,0.570726,0.411566
12868,-0.28788,2.1158
12869,-0.0288289,0.00542977
12870,-0.11399,0.349527
12871,-0.392193,0.16982
12872,0.516508,0.301255
12873,0.359675,0.145059
12874,0.0988913,0.0207689
12875,0.190199,0.0367448
12876,-0.176617,0.0914013
12877,0.181891,0.0371294
12878,0.479244,0.230343
12879,-0.169966,0.0327219
12880,-0.514286,0.275332
12881,0.31886,0.102704
12882,-0.1442,0.0309527
12883,-0.226903,0.0552296
12884,-0.151277,0.0337265
12885,-0.574012,0.343069
12886,0.733013,0.540248
12887,-0.300372,0.0938831
12888,-1.01287,1.03536
12889,-1.2303,1.52478
12890,-1.4244,2.04557
12891,-1.41954,2.0361
12892,0.875288,0.767592
12893,-0.840419,0.712586
12894,-1.59181,2.59894
12895,-0.895015,0.80256
12896,-1.46359,2.14531
12897,-1.59542,2.54964
12898,-0.398745,0.160694
12899,-1.28413,1.66946
12900,-0.233772,0.204107
12901,-0.46596,0.220745
12902,-0.35395,0.131067
12903,-0.0998379,0.0304411
12904,0.136562,0.0297905
12905,0.160654,0.0265551
12906,-0.461653,0.236573
12907,-0.177799,0.032609
12908,0.372456,0.141025
12909,-0.51577,0.268452
12910,-1.02088,1.05122
12911,-0.783814,0.632951
12912,-0.28788,2.1158
12913,0.351345,0.135777
12914,-0.439457,0.198827
12915,-0.634709,0.980326
12916,-0.874381,0.777469
12917,-1.72773,3.56253
12918,0.17942,0.0344739
12919,0.605406,0.369158
12920,-1.85219,3.5082
12921,-1.16285,1.39176
12922,-0.813799,0.706113
12923,-0.0348355,0.00488991
12924,0.460025,0.21451
12925,0.70714,0.501838
12926,0.718928,0.519863
12927,0.751659,0.573721
12928,0.495305,0.245882
12929,-1.20171,1.62756
12930,-0.0476913,0.0353358
12931,-0.33035,0.158323
12932,0.414825,0.178081
12933,0.0557713,0.004319
12934,-0.499728,0.2527
12935,-0.199852,0.0429685
12936,0.0751252,0.00713088
12937,0.107574,0.0167628
12938,0.354424,0.126203
12939,-0.232222,0.291386
12940,-0.572748,0.33283
12941,-0.984894,0.972683
12942,-1.29972,2.0258
12943,-0.188144,0.112979
12944,0.235356,0.0671855
12945,-1.27754,1.66813
12946,-0.729635,0.533484
12947,-0.806348,0.696561
12948,-0.571831,0.339139
12949,0.104639,0.066975
12950,-0.98667,1.31005
12951,0.209171,0.04627
12952,0.0507865,0.0676438
12953,-0.31085,0.110207
12954,-0.470249,0.229501
12955,0.469547,0.223205
12956,0.27979,0.0791945
12957,-0.731306,0.539355
12958,-0.0905677,0.0111966
12959,-0.0278034,0.00989768
12960,-0.1789,0.0376301
12961,0.459671,0.212469
12962,0.324845,0.107794
12963,-0.127677,0.0211198
12964,0.495921,0.248009
12965,0.47778,0.230481
12966,-0.700921,0.50002
12967,0.109717,0.0130197
12968,-0.990216,0.992676
12969,0.068369,0.00644941
12970,-0.302704,0.0935485
12971,-0.363613,0.145141
12972,-0.277696,0.0813076
12973,0.119418,0.0178077
12974,0.845389,1.05122
12975,-0.50692,0.271796
12976,-0.222239,0.0534352
12977,-0.955619,0.938104
12978,0.183595,0.0379883
12979,0.345982,0.357162
12980,-0.399359,0.255547
12981,-0.122573,0.0165334
12982,-0.485655,0.238099
12983,0.20986,0.0450354
12984,0.0182611,0.000955167
12985,-0.512572,0.26524
12986,-0.0474701,0.00744393
12987,0.00208616,0.577475
12988,-0.227817,0.0813416
12989,0.378213,0.180742
12990,0.0676667,0.113625
12991,-0.526007,0.278279
12992,-0.398254,0.159885
12993,0.154449,0.0255028
12994,-0.184584,0.0575209
12995,0.0458574,0.00667549
12996,0.257453,0.0867554
12997,-0.755492,0.599172
12998,-0.28788,2.1158
12999,-0.253356,0.400722
13000,0.347137,0.121465
13001,-0.629628,0.404713
13002,0.268032,0.0736604
13003,0.179894,0.0359725
13004,0.207419,0.0534443
13005,0.216304,0.0497268
13006,0.130641,0.0201645
13007,-0.164235,0.0320017
13008,0.38637,0.151296
13009,0.228823,0.0531938
13010,-0.579158,0.345214
13011,-0.0775201,0.0127649
13012,-0.151339,0.0237913
13013,0.0359685,0.00374988
13014,-0.49252,0.249506
13015,-0.28788,2.1158
13016,0.272333,0.100701
13017,-0.28788,2.1158
13018,-0.28788,2.1158
13019,-0.38212,0.176572
13020,-1.28727,1.71726
13021,-1.68277,2.83799
13022,-0.426013,0.184395
13023,-0.141381,0.0226384
13024,0.0166656,0.0230648
13025,-0.252135,0.0941285
13026,-0.264715,0.0916423
13027,0.150558,0.100249
13028,-0.226455,0.057613
13029,-1.75666,3.09628
13030,-1.83379,3.39334
13031,-2.1778,4.78919
13032,-0.129909,0.254335
13033,0.0490231,0.00523941
13034,-0.845959,0.729002
13035,0.466928,0.218441
13036,-1.06907,1.15471
13037,-0.528887,0.307159
13038,-0.567148,0.377683
13039,-0.28788,2.1158
13040,-0.28788,2.1158
13041,-0.659807,0.441579
13042,0.117268,0.0553356
13043,-0.0897795,0.0364647
13044,-0.606742,0.394672
13045,-0.207962,0.0599145
13046,-0.28788,2.1158
13047,-0.63917,0.417983
13048,-0.184272,0.0352398
13049,-0.723817,0.619971
13050,-1.97048,3.88515
13051,-0.268994,0.07678
13052,-0.780399,0.792473
13053,-1.13126,1.2931
13054,-0.737931,0.56611
13055,-0.0241246,0.00507812
13056,-0.0322272,0.00883952
13057,-0.795216,0.639012
13058,0.145255,0.357632
13059,-0.573849,0.345631
13060,-0.353275,0.362262
13061,0.0252947,0.00722978
13062,-0.463496,0.230522
13063,0.34691,0.125108
13064,0.9013,1.38981
13065,-0.118291,0.0149291
13066,0.29756,0.271993
13067,-0.92129,0.872224
13068,-0.389095,0.203782
13069,0.0789665,0.0327711
13070,0.287789,0.0913672
13071,-0.256637,0.0673494
13072,-0.410566,0.1709
13073,-0.992498,0.990881
13074,-0.441653,0.196981
13075,-0.138344,0.0213227
13076,-0.294897,0.0956937
13077,-0.55858,0.328017
13078,-1.27407,1.86072
13079,0.303625,0.101745
13080,-0.479126,0.230176
13081,0.0640575,0.00512256
13082,0.293275,0.135202
13083,-1.03529,1.08815
13084,-0.25842,0.0742912
13085,-0.0736874,0.0133846
13086,0.582828,0.342617
13087,-0.28788,2.1158
13088,-0.705023,0.734517
13089,0.191345,0.0565797
13090,-0.0699913,0.00718118
13091,0.66136,0.442274
13092,-0.0236458,0.00221402
13093,-0.50484,0.340701
13094,0.339637,0.154899
13095,-0.442544,0.197081
13096,-0.0376252,0.0031638
13097,-0.169871,0.0939207
13098,-0.299573,0.185803
13099,-0.411979,0.229934
13100,-0.127089,0.0241064
13101,-0.148462,0.0684054
13102,0.209794,0.0878576
13103,-1.10701,1.22994
13104,0.167249,0.605443
13105,-0.556592,0.395632
13106,-0.351507,0.126288
13107,-0.28788,2.1158
13108,-0.830629,1.02648
13109,-0.56174,0.46501
13110,0.223162,0.0552002
13111,0.390922,0.154425
13112,0.263339,0.0853522
13113,0.545742,0.875305
13114,-0.119141,0.140288
13115,0.0817734,0.0183098
13116,-0.205423,0.0632053
13117,-0.859467,0.743809
13118,-1.40033,1.97072
13119,-1.37849,1.90897
13120,-1.66902,2.79943
13121,-1.80794,3.28348
13122,-1.75143,3.09805
13123,-1.25441,1.69964
13124,-1.74882,3.08116
13125,0.373906,0.142069
13126,-1.14291,1.31755
13127,0.0981124,0.0473229
13128,0.515834,0.266805
13129,-0.58004,0.341604
13130,-1.24273,1.57006
13131,-0.959938,0.938498
13132,0.155465,0.0271413
13133,-0.381549,0.149625
13134,0.379172,0.161539
13135,0.201378,0.0494759
13136,0.569239,0.336959
13137,0.306433,0.110919
13138,0.407239,0.168323
13139,0.136886,0.0225715
13140,0.598377,0.359339
13141,-0.184943,0.0364545
13142,0.0633897,0.00549716
13143,-0.307029,0.0962178
13144,-0.962353,1.26266
13145,-0.899166,0.810876
13146,-1.47115,2.16999
13147,-1.50941,2.28492
13148,-0.911061,0.849058
13149,-1.27001,1.62674
13150,-0.981134,0.967047
13151,-1.64712,2.72594
13152,-1.60101,2.57835
13153,-1.03982,1.09356
13154,-0.767708,0.590629
13155,-0.431524,0.187318
13156,-0.0839435,0.00797856
13157,-0.00190732,0.00327718
13158,-0.278154,0.0789687
13159,0.114895,0.0139571
13160,0.100284,0.0108367
13161,-0.374091,0.141061
13162,-1.0338,1.07086
13163,-0.0836161,0.00879048
13164,-0.432939,0.190834
13165,-0.581277,0.3409
13166,-1.18214,1.40458
13167,-1.2312,1.5202
13168,-0.46907,0.244179
13169,-0.281149,0.0812522
13170,0.241707,0.0678677
13171,-0.452446,0.216855
13172,-1.11166,1.24491
13173,-1.10472,1.23238
13174,-0.731125,0.535923
13175,-0.16647,0.0408495
13176,-0.358198,0.146074
13177,0.140473,0.0289618
13178,-0.979659,0.992794
13179,-1.64131,3.27136
13180,0.215987,0.0496444
13181,0.0789508,0.0103612
13182,-0.352754,0.131611
13183,-0.0121053,0.00834386
13184,0.0983378,0.0151057
13185,0.460813,0.217784
13186,-0.0937085,0.0124081
13187,0.619857,0.386002
13188,-0.135404,0.0369206
13189,-0.614574,0.388998
13190,0.280723,0.0815926
13191,-0.0260729,0.0147327
13192,0.434096,0.190067
13193,0.359408,0.149647
13194,0.470475,0.237351
13195,0.0434075,0.0123057
13196,0.466574,0.237658
13197,-0.229116,0.0538744
13198,0.354811,0.129232
13199,0.328261,0.111196
13200,-0.935576,0.885724
13201,-0.377558,0.144464
13202,-0.201541,0.0421253
13203,0.328518,0.119547
13204,-0.00100382,0.00543637
13205,-0.610795,0.709604
13206,-0.287514,0.118678
13207,-0.28788,2.1158
13208,0.284514,0.0815549
13209,-0.670768,0.451369
13210,-0.038432,0.00212728
13211,-1.01643,1.03704
13212,-0.242147,0.0594312
13213,-0.0900614,0.0411724
13214,-0.6467,0.464586
13215,-0.723933,0.530778
13216,-0.414377,0.194495
13217,-0.0775313,0.00865222
13218,-0.521281,0.300139
13219,-1.49633,2.47645
13220,0.0376907,0.00257057
13221,-0.90324,0.819129
13222,-0.438831,0.209957
13223,-1.0987,1.21135
13224,-1.54001,2.37935
13225,-1.54962,2.41123
13226,-0.151782,0.0272741
13227,-0.0975212,0.0118939
13228,-0.228566,0.0575701
13229,-0.996991,1.23145
13230,-0.689502,0.480119
13231,-1.53136,2.3576
13232,-0.0432882,0.0414189
13233,-0.0811196,0.0396417
13234,-1.24349,1.61705
13235,-0.330608,0.235395
13236,-0.536213,0.864995
13237,-0.434718,0.208465
13238,-1.08724,1.20953
13239,-0.877058,0.787399
13240,0.497762,0.251194
13241,-0.450911,0.208198
13242,-0.664357,0.442685
13243,-0.334774,0.116448
13244,0.345027,0.131767
13245,0.274739,0.0787548
13246,0.588637,0.35165
13247,-0.202456,0.0566818
13248,-0.510201,0.262158
13249,0.000556902,0.0111416
13250,0.166155,0.0281413
13251,-0.297856,0.0953625
13252,-0.0771402,0.0180986
13253,-0.174771,0.0907528
13254,-1.15758,1.36742
13255,-0.339167,0.116775
13256,-1.80511,3.26645
13257,-0.363278,0.369429
13258,0.679823,0.466204
13259,-1.14728,1.31891
13260,0.032096,0.0868672
13261,-0.980024,0.979034
13262,-0.757841,0.597772
13263,-0.39457,0.169498
13264,-0.341666,0.124317
13265,0.431383,0.204259
13266,-0.171052,0.0302456
13267,-0.355543,0.136082
13268,0.530614,0.283789
13269,0.07058,0.00780774
13270,-0.27727,0.0865504
13271,0.520581,0.274681
13272,0.19654,0.0596347
13273,-0.0658054,0.0535224
13274,-0.646168,0.526579
13275,0.474465,0.228404
13276,-1.67896,2.84048
13277,-1.05844,1.12354
13278,0.230415,0.064549
13279,0.0646062,0.016322
13280,-1.39318,1.94781
13281,-0.824841,0.684368
13282,-1.08576,1.18087
13283,-0.279003,0.0795287
13284,-0.846227,1.05263
13285,-0.28788,2.1158
13286,-0.606289,0.399346
13287,0.200297,0.0444461
13288,-0.204714,0.0796045
13289,-1.05201,1.12102
13290,-0.593182,0.356437
13291,-0.894372,0.804422
13292,0.34791,0.12319
13293,-0.778486,0.615063
13294,-0.952734,0.926728
13295,-0.978486,0.974453
13296,-1.06265,1.1364
13297,-0.829957,0.691461
13298,-0.586202,0.921103
13299,-1.02449,1.07612
13300,-0.059268,0.00548771
13301,-0.303198,0.120333
13302,-0.364812,0.138916
13303,-0.743341,0.584315
13304,-0.325874,0.145739
13305,0.575997,0.350359
13306,-0.531844,0.343065
13307,0.512757,0.282887
13308,0.181983,0.0369883
13309,0.20368,0.101693
13310,0.0164204,0.0398146
13311,0.185099,0.054735
13312,-0.28788,2.1158
13313,-1.00463,1.02265
13314,-0.469347,0.23191
13315,0.166823,0.0376192
13316,-0.398394,0.207909
13317,-0.634296,0.405673
13318,-0.246431,0.100273
13319,-0.284301,0.0820521
13320,-0.782293,0.617608
13321,-0.271044,0.0789374
13322,-0.297276,0.214466
13323,-0.473896,0.289642
13324,0.119544,0.0154558
13325,-0.459331,0.212854
13326,0.376244,0.157888
13327,0.302098,0.0939042
13328,0.269745,0.0806395
13329,0.114105,0.0158966
13330,-0.430723,0.218583
13331,-0.564658,0.468297
13332,-1.07741,1.34427
13333,-1.54782,2.40017
13334,-0.562324,0.381272
13335,-0.808032,0.658501
13336,-0.0586623,0.0472854
13337,0.720284,1.09628
13338,-0.214027,0.0492485
13339,-0.635031,0.455651
13340,-1.05827,1.13991
13341,-0.146854,0.0521225
13342,-0.416465,0.19341
13343,-0.459437,0.394533
13344,0.530101,0.61754
13345,-1.25321,1.5765
13346,-0.412469,0.747602
13347,-1.45931,2.23863
13348,-0.584544,0.419273
13349,-0.0437696,0.00335767
13350,-0.0108067,0.0378136
13351,-1.20984,1.47226
13352,-0.307866,0.0992773
13353,0.650468,0.423919
13354,-0.798602,0.655533
13355,-1.43521,2.2973
13356,-0.505863,0.280049
13357,-0.741626,0.55759
13358,-0.371868,0.171347
13359,-0.005736,0.0154268
13360,-1.67866,3.39539
13361,0.0884676,0.103886
13362,-0.192035,0.0617747
13363,-0.28788,2.1158
13364,-1.31344,1.73385
13365,-0.687266,0.483957
13366,0.259337,0.0712804
13367,0.506346,0.257613
13368,-1.17157,1.39255
13369,-0.341119,0.141259
13370,-0.125016,0.0270867
13371,0.057169,0.00959961
13372,0.19849,0.0412424
13373,-0.478952,0.232282
13374,-0.843287,0.715951
13375,-1.32226,1.7576
13376,0.187064,0.047141
13377,-1.05179,1.12328
13378,-0.956957,0.93624
13379,-0.980189,0.968497
13380,-0.660032,0.466199
13381,0.197986,0.0456826
13382,-0.213779,0.0501725
13383,0.0277921,0.00308755
13384,-0.135101,0.0221603
13385,0.443666,0.202312
13386,-0.341562,0.120275
13387,-1.50457,2.29317
13388,0.171962,0.0330417
13389,-1.22994,1.56195
13390,-0.478829,0.257681
13391,-0.57862,0.369276
13392,0.178839,0.0391598
13393,-0.561045,0.320728
13394,-1.36527,1.89341
13395,-1.51267,2.31874
13396,-1.36612,1.91867
13397,-1.23562,1.56276
13398,-1.54294,2.40907
13399,-0.389844,0.160345
13400,-1.18297,1.48525
13401,-1.98219,3.94767
13402,-1.2845,1.65797
13403,-0.0521391,0.0172787
13404,0.0508868,0.00352475
13405,0.498004,0.250658
13406,0.0965784,0.0241553
13407,0.429285,0.204252
13408,0.250463,0.0648083
